svm_type c_svc
kernel_type rbf
gamma 0.10575
nr_class 2
total_sv 753
rho -0.0818819
label 1 0
probA -5.89867
probB -0.493652
nr_sv 373 380
SV
1 1:0.02327 2:0.00336 3:0.0133 4:0.01643 5:0.01484 6:0.01005 7:0.02038 8:0.04797 9:0.05671 10:0.01469 11:0.00488 13:0.01204 14:0.01438 15:0.02617 16:0.05086 17:0.14548 18:0.11316 19:0.00679 20:0.00616 21:0.00952 22:0.02497 23:0.07309 24:0.02837 25:0.00763 26:0.00358 27:0.00347 30:0.00174 31:0.05888 32:0.10041 33:0.06676 34:0.01891 35:0.00175 37:0.09188 38:0.00696 39:0.01575 40:0.01978 41:0.01155 42:0.01528 43:0.02361 44:0.10318 45:0.16262 46:0.07869 47:0.00901 48:0.00971 49:0.00427 51:0.00365 52:0.00604 53:0.01556 54:0.06614 55:0.00519 56:0.01269 57:0.01813 58:0.04093 59:0.02805 60:0.05208 61:0.03104 62:0.01098 63:0.00488 64:0.0175 65:0.00606 66:0.00391 67:0.00273 68:0.01696 69:0.02123 70:0.01122 71:0.04269 72:0.03005 73:0.05454 74:0.0564 75:0.02449 76:0.00396 79:0.00453 80:0.02612 81:0.03329 82:0.0678 83:0.13846 84:0.11039 85:0.04537 86:0.00871 88:0.00029 89:0.01403 90:0.07174 91:0.0208 92:0.00319 93:0.00743 94:0.00177 95:0.01133 96:0.00065 97:0.00712 98:0.0206 99:0.04582 100:0.01648 101:0.01239 102:0.04763 103:0.0353 104:0.02449 105:0.02034 106:0.00774 107:0.0048 108:0.05199 109:0.02765 110:0.1042 111:0.17711 112:0.05819 113:0.00806 115:0.00092 116:0.00277 118:0.0377 119:0.04802 120:0.02546 121:0.00672 122:0.00322 125:0.00538 126:0.01392 128:0.00292 129:0.06088 130:0.23573 131:0.07443 132:0.00322 133:0.00015 136:0.0074 137:0.00589 138:0.00442 139:0.03627 140:0.04498 141:0.00177 142:0.00052 143:0.0014 144:0.00071 145:0.03801 146:0.06576 147:0.07618 148:0.03917 149:0.08177 150:0.02695 151:0.04568 152:0.05626 153:0.04372 155:0.00023 156:0.03656 157:0.06677 158:0.08895 159:0.02816 160:0.00503 163:0.01996 164:0.00094 165:0.00563 166:0.01565 167:0.04391 168:0.0093 169:0.02309 170:0.00105 171:0.01368 172:0.01556 173:0.03693 174:0.06417 175:0.04287 176:0.00477 177:0.0033 181:0.02416 182:0.01414 183:0.02194 184:0.01443 185:0.02292 186:0.02156 187:0.0441 188:0.01162 189:0.00485 190:0.03995 191:0.01522 192:0.02052 193:0.03104 194:0.03857 195:0.00295 196:0.02866 197:0.05782 198:0.03257 199:0.04603 200:0.047 201:0.02295 202:0.00379 203:0.00879 204:0.00934 205:0.05125 206:0.02393 207:0.0032 208:0.01379 209:0.05113 210:0.03354 211:0.00765 212:0.0395 213:0.04211 214:0.01225 215:0.05695 216:0.07976 217:0.02781 218:0.02767 219:0.00164 220:0.00494 221:0.00153 222:2e-005 223:0.00798 224:0.03584 225:0.05233 226:0.0406 227:0.03913 228:0.01062 229:0.02172 230:0.04785 231:0.03309 232:0.0096 233:0.03261 234:0.031 235:0.02022 236:0.05523 237:0.03286 238:0.00752 239:0.00663 240:0.01049 242:0.04295 243:0.13966 244:0.0399 245:0.03137 246:0.0066 247:0.00385 248:0.0055 249:0.0075 250:0.01431 251:0.08808 252:0.06136 253:0.0419 254:0.01635 255:0.04293 256:0.02519 257:0.08721 258:0.09195 259:0.11838 260:0.08408 261:0.04754 262:0.00686 263:0.00528 264:0.01237 265:0.00213 266:0.02155 267:0.03168 268:0.03998 269:0.00972 270:0.0037 271:0.03826 272:0.00192 273:0.01531 274:0.00974 275:0.03375 276:0.01811 277:0.01825 278:0.06709 279:0.0603 280:0.01125 281:0.00212 282:0.00038 283:0.00417 284:0.00366 285:0.00284 286:0.00924 287:0.00867 288:0.00612 
1 1:0.07476 2:0.0065 6:0.00346 7:0.01321 8:0.08166 9:0.17761 10:0.06586 11:0.0178 12:0.00487 13:0.00121 15:0.00482 16:0.00706 17:0.08971 18:0.10039 19:0.04199 20:0.01564 21:0.01189 22:0.00891 23:0.019 24:0.02605 25:0.01589 26:0.04197 27:0.01372 28:0.03117 29:0.01313 30:0.01562 31:0.02236 32:0.01645 33:0.00337 34:0.00943 35:0.01065 36:0.03384 37:0.08956 38:0.02467 39:0.0088 40:0.02445 41:0.00308 42:0.00521 43:0.00592 44:0.03953 45:0.07682 46:0.08917 47:0.06007 48:0.06456 49:0.01046 50:0.00138 51:0.00781 52:0.05425 53:0.06726 54:0.012 55:0.03485 56:0.00334 57:0.02899 58:0.06846 59:0.02371 60:0.00126 61:0.0058 62:0.00391 63:0.00529 64:0.00054 65:0.00583 66:0.0194 67:0.06605 68:0.03198 69:0.02002 70:0.01343 71:0.01712 72:0.00503 73:0.16278 74:0.08424 75:0.02758 76:0.00329 77:0.00315 78:0.01039 79:0.02037 80:0.00997 81:0.01326 82:0.02525 83:0.06102 84:0.11067 85:0.00411 86:0.00179 87:0.00089 88:0.0088 89:0.0181 90:0.02454 91:0.00334 92:0.00835 93:0.03146 94:0.01873 95:0.01677 96:0.00251 97:0.00975 98:0.00942 99:0.00315 100:0.00226 101:0.01675 102:0.12147 103:0.1314 104:0.02627 105:0.00501 106:0.0008 107:0.00105 108:0.00131 109:0.03263 110:0.00998 111:0.00093 112:0.01203 113:0.01912 114:0.05175 115:0.03345 116:0.03107 117:0.01863 118:0.10408 119:0.05983 120:0.03644 121:0.02454 122:0.02943 123:0.041 124:0.06337 125:0.06908 126:0.0351 127:0.02289 128:0.02613 129:0.00378 130:0.0064 131:0.00106 133:0.00253 134:0.00349 135:0.00222 136:0.07412 137:0.04448 138:0.03457 139:0.01969 140:0.01919 141:0.02986 142:0.00769 143:0.02199 144:0.0074 145:0.02389 146:0.02766 147:0.05442 148:0.03988 149:0.00687 150:0.00095 151:0.00467 152:0.00975 153:0.00762 154:0.00769 155:0.01282 156:0.01674 157:0.01317 158:0.0054 159:0.00523 160:0.02441 161:0.11804 162:0.07305 163:0.03985 164:0.06161 165:0.01227 166:0.00286 167:0.00187 169:0.00707 170:0.03841 171:0.11558 172:0.05864 173:0.03386 174:0.00117 175:0.00513 176:0.00639 177:0.00423 178:0.01169 179:0.06691 180:0.08018 181:0.033 182:0.00888 183:0.00837 184:0.00853 185:0.01091 186:0.0047 187:0.00645 188:0.04311 189:0.17234 190:0.02879 191:0.02862 192:0.02755 193:0.01397 194:0.02462 195:0.00956 196:0.01089 197:0.04047 198:0.10425 199:0.05344 200:0.00919 201:0.00926 202:0.00122 204:0.00768 205:0.01085 206:0.03287 207:0.07388 208:0.11368 209:0.02557 210:0.00278 212:0.00223 213:0.0052 214:0.00478 215:0.00706 216:0.0553 217:0.01075 218:0.02361 219:0.02553 220:0.04392 221:0.03521 222:0.0092 223:0.0048 224:0.00114 225:0.00933 227:0.00178 228:0.00812 229:0.07707 230:0.08374 231:0.0721 232:0.05369 233:0.00583 234:0.00773 235:0.05541 236:0.01764 237:0.00046 239:0.00219 240:0.00345 241:0.01644 242:0.06936 243:0.06341 244:0.01352 245:0.00278 246:0.00596 247:0.02175 248:0.04646 249:0.08544 250:0.06553 251:0.04974 252:0.00691 253:0.00387 254:0.03865 255:0.15673 256:0.04229 257:0.02538 258:0.00318 259:0.00829 260:0.00223 261:0.00212 262:0.00082 263:0.01909 264:0.0299 265:0.00317 266:0.00894 267:0.00612 269:0.00392 270:0.03576 271:0.06442 272:0.06801 273:0.07106 274:0.03176 275:0.05646 276:0.04974 277:0.04815 278:0.00283 279:0.01482 281:0.00747 282:0.04544 283:0.07323 284:0.07313 286:0.00224 287:0.00075 
1 1:0.00095 2:0.02108 3:0.0038 4:0.01107 5:0.00976 6:0.01347 7:0.02216 8:0.04967 9:0.15968 10:0.02193 11:0.00399 12:0.00347 13:0.01074 14:0.00404 15:0.00524 16:0.00638 17:0.05574 18:0.09588 19:0.00092 20:0.01857 21:0.00458 22:0.06723 23:0.11982 24:0.06382 25:0.01589 26:0.01423 27:0.00082 28:0.00719 29:0.01095 30:0.03734 31:0.06879 32:0.03307 33:0.01591 34:0.01065 35:0.00949 36:0.00166 37:0.01959 38:0.01449 39:0.00155 40:0.00577 41:0.00679 42:0.00435 43:0.02321 44:0.04362 45:0.06884 46:0.04738 47:0.04431 48:0.00467 49:0.03824 50:0.00794 51:0.02293 52:0.04439 53:0.04834 54:0.05285 55:0.00924 56:0.01209 57:0.02228 58:0.07934 59:0.07228 60:0.01299 61:0.01131 62:0.01407 63:0.00199 64:0.0133 65:0.01602 66:0.02621 67:0.0787 68:0.03667 69:0.0202 70:0.01736 71:0.02811 72:0.02856 73:0.12292 74:0.07732 75:0.03478 76:0.00969 78:0.0079 79:0.02142 80:0.03002 81:0.04523 82:0.03397 83:0.02283 84:0.02979 85:0.00726 86:0.00202 87:0.00532 88:0.01385 89:0.01192 90:0.03641 91:0.04136 92:0.04588 93:0.06787 94:0.04026 95:0.00452 96:0.00821 97:0.00374 98:0.00686 99:0.00067 100:0.00015 101:0.02915 102:0.19027 103:0.04119 104:0.00413 105:0.00077 106:0.00155 107:0.00021 108:0.00058 109:0.01646 110:0.00694 111:0.03709 112:0.00746 113:0.02286 114:0.03818 115:0.04168 116:0.02005 117:0.0062 118:0.00832 119:0.04544 120:0.04487 121:0.22269 122:0.13647 123:0.02196 124:0.02206 125:0.00555 126:0.00599 127:0.0033 128:0.0035 129:0.01922 130:0.03083 131:0.00656 132:0.00492 133:0.0163 134:0.01073 135:0.00292 136:0.01102 137:0.05381 138:0.03222 139:0.04693 140:0.0328 141:0.00986 142:0.00481 145:0.01401 146:0.03246 147:0.11656 148:0.10789 149:0.01339 150:0.00061 151:0.00613 152:0.00836 153:0.00974 154:0.01126 155:0.00894 156:0.01538 157:0.05277 158:0.03535 159:0.02109 160:0.02632 161:0.08806 162:0.02108 163:0.04113 164:0.06434 165:0.02194 166:0.01115 167:0.00847 168:0.00185 169:0.00558 170:0.00466 171:0.03127 172:0.04226 173:0.01379 174:0.00234 176:0.00199 177:0.00608 178:0.0068 179:0.04753 180:0.09945 181:0.00756 182:0.00122 183:0.01547 184:0.04234 185:0.01785 186:0.0224 187:0.01276 188:0.09091 189:0.19078 190:0.09458 191:0.02356 192:0.02848 193:0.06465 194:0.03988 195:0.01883 196:0.00615 197:0.02582 198:0.05542 199:0.03159 200:0.01107 201:0.00552 202:0.00164 203:0.00313 204:0.00675 205:0.00266 206:0.00848 207:0.05236 208:0.03902 209:0.00683 210:0.00533 211:0.0069 212:0.0049 213:0.00312 214:0.00262 215:0.00977 216:0.03967 217:0.00659 218:0.01362 219:0.00679 220:0.01642 221:0.08493 222:0.04686 223:0.01759 224:0.00494 225:0.00025 226:0.00015 227:0.00535 228:0.01014 229:0.0635 230:0.11843 231:0.04982 232:0.02402 233:0.00175 234:0.00187 235:0.04099 236:0.02211 237:0.01776 238:0.02089 239:0.00531 240:0.01135 241:0.04869 242:0.02838 243:0.02108 244:0.01073 245:0.0034 247:0.00843 248:0.03453 249:0.1343 250:0.0975 251:0.02153 253:0.00486 254:0.01683 255:0.10674 256:0.14054 257:0.11925 258:0.06332 259:0.02586 260:0.00272 262:0.00486 263:0.00477 264:0.00377 265:0.01524 266:0.02638 268:0.01368 269:0.00452 270:0.00129 271:0.02552 272:0.03205 273:0.01229 274:0.0075 275:0.08579 276:0.0566 277:0.05649 278:0.01678 279:0.02424 280:0.00258 284:0.01929 285:0.01888 286:0.05381 287:0.02409 288:0.00942 
1 1:0.04282 2:0.01741 3:0.00731 4:0.00064 7:0.00199 8:0.06293 9:0.11115 10:0.027 11:0.03411 12:0.00253 13:0.00092 14:0.00134 17:0.04733 18:0.17967 19:0.0234 20:0.01551 21:0.00789 22:0.01329 23:0.00126 24:0.00446 25:0.02713 26:0.09012 27:0.08881 28:0.0155 29:0.00241 30:0.00062 31:0.00619 32:0.00981 33:0.00539 34:0.03178 35:0.02327 36:0.096 37:0.04509 38:0.03501 39:0.00114 40:0.00324 41:0.00464 42:0.00893 43:0.02113 44:0.06612 45:0.10005 46:0.0566 47:0.02864 48:0.02466 49:0.01253 50:0.00083 51:0.00546 52:0.02774 53:0.07067 54:0.07163 55:0.00838 56:0.00966 57:0.03461 58:0.08368 59:0.03326 60:0.01106 61:0.01282 62:0.01632 63:0.02881 64:0.01089 65:0.00834 66:0.06237 67:0.0447 68:0.00405 69:0.01237 70:0.00157 71:0.00935 72:0.02364 73:0.08288 74:0.07853 75:0.06792 76:0.0168 77:0.00737 78:0.0123 79:0.00244 80:0.00453 81:0.04632 82:0.00741 83:0.07901 84:0.10967 85:0.01187 86:0.00828 87:0.00711 88:0.00449 89:0.01518 90:0.00835 91:0.00375 92:0.01388 93:0.0206 94:0.00935 95:0.00448 96:0.00298 97:0.00265 98:0.0027 99:0.01247 100:0.00071 101:0.04406 102:0.14908 103:0.13263 104:0.02584 105:0.00184 106:0.00124 107:0.00128 109:0.00547 110:0.00461 111:0.01395 113:0.03991 114:0.02281 115:0.01035 116:0.01064 117:0.02288 118:0.06955 119:0.02431 120:0.00857 121:0.00966 122:0.02005 123:0.04758 124:0.01795 125:0.03927 126:0.05128 127:0.00303 128:0.01175 129:0.03567 130:0.01458 131:0.06697 132:0.03565 133:0.02052 134:0.00601 135:0.00399 136:0.05015 137:0.07207 138:0.15361 139:0.05139 140:0.01732 141:0.03193 142:0.00321 144:0.00329 145:0.00765 146:0.02079 147:0.08821 148:0.06145 149:0.0298 150:0.01736 151:0.01834 152:0.00542 153:0.00898 154:0.00022 155:0.00015 156:0.0166 157:0.02297 158:0.01206 159:0.01052 160:0.00229 161:0.01324 162:0.02024 163:0.06389 164:0.04321 165:0.04227 166:0.05662 167:0.0245 168:0.0101 169:0.00296 170:0.03494 171:0.03606 172:0.02631 174:0.00257 175:0.02185 176:0.00388 177:0.04341 178:0.05676 179:0.07059 180:0.10381 181:0.01828 182:0.00251 183:0.00906 184:0.02934 185:0.01985 187:0.00158 188:0.10238 189:0.09433 190:0.02884 191:0.01913 192:0.01207 193:0.02908 194:0.01488 195:0.00244 196:0.02858 197:0.04483 198:0.09314 199:0.02341 200:0.00479 204:0.00766 205:0.0365 206:0.08632 207:0.05024 208:0.03346 209:0.00871 210:0.00143 212:0.00522 213:0.00159 214:0.01066 215:0.07464 216:0.10504 217:0.03452 218:0.02438 219:0.01758 220:0.01624 221:0.02154 222:0.01052 223:0.00316 224:0.01655 225:0.0071 226:0.00347 227:0.00039 228:0.0147 229:0.08899 230:0.11458 231:0.06716 232:0.0317 233:0.01228 234:0.00082 235:0.01166 236:0.00984 237:0.00039 239:0.00424 240:0.02485 241:0.03577 242:0.07803 243:0.05388 244:0.00024 245:0.00117 246:0.00169 247:0.01233 248:0.00922 249:0.03908 250:0.10723 251:0.10689 252:0.01783 253:0.0023 254:0.00718 255:0.01646 256:0.09276 257:0.27325 258:0.08135 259:0.00886 260:0.00117 262:0.00608 263:0.0056 264:0.01129 265:0.01424 266:0.02326 267:0.02892 268:0.02784 269:0.00586 270:0.00417 271:0.00925 272:0.0093 273:0.01999 274:0.07837 275:0.04079 276:0.0518 277:0.0158 278:0.01425 279:0.02825 280:0.01097 281:0.01014 282:0.00652 283:0.0121 284:0.03223 285:0.02994 286:0.0073 287:0.00706 288:0.00535 
1 1:0.02006 2:0.00416 3:0.01285 4:0.01242 5:0.0033 6:0.004 7:0.05914 8:0.06182 9:0.01761 10:0.01783 11:0.00414 12:0.00087 15:0.00021 16:0.01803 17:0.09607 18:0.16183 19:0.01946 20:0.03675 21:0.08709 22:0.04107 23:0.04993 24:0.06233 25:0.03218 26:0.00933 28:0.02794 29:0.01838 30:0.02086 31:0.0568 32:0.00954 33:0.02244 34:0.00242 35:0.00045 36:0.00867 37:0.13448 38:0.02182 39:0.00293 43:0.00538 44:0.01564 45:0.14561 46:0.1892 47:0.02299 48:0.00564 49:0.00131 50:0.00329 53:0.0205 54:0.08388 55:0.02409 56:0.04066 57:0.01238 58:0.04881 59:0.05314 60:0.0311 61:0.01472 62:0.03644 63:0.01727 64:0.00391 65:0.01108 66:0.0037 68:0.00286 69:0.00704 70:0.01473 71:0.02157 72:0.00384 73:0.09701 74:0.04521 75:0.07875 76:0.01894 77:0.00852 78:0.01976 79:0.02211 80:0.02198 81:0.08668 82:0.14262 83:0.16317 84:0.00589 85:0.00395 86:0.02692 87:0.01319 88:0.00953 89:0.01388 90:0.04327 91:0.00296 92:0.00561 93:0.03079 94:0.01843 95:0.01476 96:0.00946 97:0.00392 98:0.00495 99:0.00017 100:0.01394 101:0.03157 102:0.01194 103:0.00068 104:0.00589 105:0.00752 106:0.00317 107:0.0039 108:0.00895 109:0.01381 110:0.13927 111:0.02094 112:0.00073 113:0.00586 114:0.00147 115:0.00175 116:0.00306 117:0.00056 118:0.00185 119:0.01517 120:0.00799 121:0.00626 122:0.01394 123:0.01098 124:0.00167 125:0.00155 126:0.00519 127:0.00523 128:0.21223 129:0.19544 130:0.02563 131:0.00228 136:0.00286 137:0.00531 138:0.16227 139:0.11863 140:0.0064 141:0.00501 142:0.00211 143:0.00255 144:0.00197 145:0.00458 146:0.02771 147:0.04926 148:0.08415 149:0.03673 150:0.01917 151:0.06063 152:0.05348 153:0.03256 154:0.01233 155:0.01335 156:0.03035 157:0.03563 158:0.01976 159:0.03609 160:0.03492 161:0.02063 162:0.01943 163:0.00056 164:0.00383 165:0.00695 166:0.00867 167:0.00328 168:0.00622 169:0.01231 170:0.03128 171:0.0421 172:0.0716 173:0.16569 174:0.0321 175:0.00604 177:0.00081 178:0.01212 179:0.00371 180:0.00198 181:0.014 182:0.00295 185:9e-005 186:0.00362 187:0.01925 188:0.02977 189:0.02043 190:0.01276 191:0.00487 192:0.00025 196:0.00387 197:0.01903 198:0.02532 199:0.08272 200:0.03604 201:0.02282 202:0.00253 203:0.01118 205:0.01298 206:0.06615 207:0.18798 208:0.20403 209:0.00822 210:0.00323 214:0.00417 215:0.03214 216:0.1696 217:0.00762 218:0.01323 219:0.01498 220:0.00467 221:0.0008 222:0.00083 223:0.00329 224:0.00755 225:0.01309 226:0.00119 227:0.00786 228:0.01304 229:0.004 230:0.00568 231:0.00681 232:0.02305 233:0.00963 234:0.01545 235:0.14253 236:0.00128 240:0.00218 241:0.00107 242:0.01645 243:0.22942 244:0.09475 245:0.04796 246:0.01236 247:0.03868 248:0.0034 251:0.08266 252:0.1745 253:0.00369 254:0.00131 255:0.01074 256:0.01209 257:0.01995 258:0.01516 259:0.00016 260:0.00089 261:0.00122 263:0.00133 264:0.02149 265:0.11432 266:0.15398 267:0.04736 268:0.00049 271:0.04462 272:0.04473 273:0.02387 274:0.0175 277:0.00423 278:0.09194 279:0.1667 280:0.00084 281:0.00023 282:0.00447 283:0.01519 284:0.00874 285:0.02501 286:0.06259 287:0.07473 288:0.01041 
1 1:0.02102 2:0.04987 3:0.02173 4:0.01346 5:0.00173 6:0.0063 7:0.09532 8:0.05926 9:0.0276 10:0.02768 11:0.02324 12:0.00303 13:0.00099 14:0.00046 16:0.00206 17:0.07329 18:0.17685 19:0.00406 20:0.00626 21:0.03144 22:0.02482 23:0.03012 24:0.02618 25:0.07912 26:0.01142 27:0.00408 28:0.01203 29:0.00819 30:0.01366 31:0.01046 32:0.00533 33:0.00856 34:0.0483 35:0.03023 36:0.04187 37:0.1272 38:0.00731 39:0.00084 44:0.00987 45:0.21666 46:0.17221 47:0.01658 48:0.00098 51:0.00053 52:0.00026 53:0.01935 54:0.18101 55:0.02282 56:0.04111 57:0.0179 58:0.021 59:0.04207 60:0.06584 61:0.0036 62:0.00634 63:0.00301 64:0.00406 65:0.00589 66:0.00349 67:0.00053 69:0.00053 70:0.00199 71:0.00445 72:0.00258 73:0.16786 74:0.08392 75:0.03686 76:0.00913 80:0.03091 81:0.07463 82:0.25322 83:0.07316 84:0.01119 88:0.02065 89:0.05287 90:0.09272 91:0.00914 92:0.00687 93:0.00294 94:0.0011 95:0.00157 98:0.00081 99:0.00407 100:0.01186 101:0.01859 102:0.00862 103:0.00288 104:0.00539 105:0.00446 106:0.00372 107:0.00166 108:0.00918 109:0.05605 110:0.10789 111:0.04527 112:0.00461 113:0.00098 114:0.00765 115:0.013 116:0.00751 117:0.01669 118:0.02008 119:0.01041 120:0.00211 121:0.00576 122:0.00386 123:0.00496 124:0.00068 125:0.01887 126:0.0242 127:0.06556 128:0.19403 129:0.05743 130:0.0136 131:0.00098 132:0.00083 133:0.0006 134:0.00058 135:0.00052 136:0.02495 137:0.04436 138:0.11045 139:0.09446 140:0.0057 141:0.00323 142:0.00803 143:0.0177 144:0.00638 146:0.01343 147:0.04284 148:0.0675 149:0.05554 150:0.01164 151:0.01308 152:0.03671 153:0.01182 155:0.0093 156:0.00712 157:0.01285 158:0.03377 159:0.03859 160:0.07071 161:0.09327 162:0.04354 163:0.00836 164:0.03475 165:0.08497 166:0.01714 167:0.01435 168:0.00616 169:0.0009 170:0.00087 171:0.0031 172:0.06725 173:0.04363 174:0.08143 175:0.00918 176:0.00126 177:0.00494 178:0.00845 179:0.01658 180:0.03497 181:0.01057 182:0.00432 183:0.00038 184:0.00418 185:0.03091 186:0.07556 187:0.07296 188:0.03351 189:0.01451 190:0.00689 191:0.01802 192:0.00109 194:0.00072 196:0.00801 197:0.01406 198:0.00973 199:0.04722 200:0.02145 201:0.01201 202:0.02088 203:0.01085 205:0.00662 206:0.02468 207:0.22257 208:0.12195 209:0.00752 210:0.00241 211:0.00372 212:0.0033 214:0.00213 215:0.0123 216:0.17499 217:0.00874 218:0.00697 219:0.00914 220:0.01084 221:0.00552 222:0.00536 223:0.00408 224:0.0129 225:0.01306 226:0.01062 227:0.00698 228:0.00728 229:0.00658 230:0.00101 231:0.00481 232:0.01492 233:0.01524 234:0.00544 235:0.17551 236:0.01851 237:0.00633 240:0.00131 241:0.01222 242:0.02342 243:0.15983 244:0.14293 245:0.02157 246:0.02782 247:0.011 251:0.04049 252:0.20959 253:0.00204 254:0.00245 255:0.0071 256:0.01409 257:0.00873 258:0.02003 259:0.02476 260:0.00262 261:0.0081 262:0.00302 263:0.00192 264:0.01911 265:0.12064 266:0.09091 267:0.0678 268:0.01972 269:0.00094 271:0.02843 272:0.01316 273:0.00555 274:0.00207 275:0.00742 276:0.01455 277:0.01167 278:0.0678 279:0.17703 280:0.00824 281:0.00441 282:0.00341 283:0.00074 284:0.01282 285:0.04053 286:0.07445 287:0.08992 288:0.02383 
1 1:0.0437 2:0.00709 3:0.06187 4:0.01661 5:0.0269 6:0.02594 7:0.04014 8:0.04215 9:0.06006 10:0.00368 11:0.00487 12:0.01144 13:0.03193 14:0.01775 15:0.01795 16:0.00494 17:0.03021 18:0.13531 19:0.00318 20:0.00865 21:0.03019 22:0.12161 23:0.05664 24:0.0085 25:0.00252 26:0.00055 28:0.00258 29:0.00076 30:0.02295 31:0.10829 32:0.04166 33:0.00843 34:0.00095 37:0.1086 38:0.02603 39:0.01437 40:0.00338 44:0.01527 45:0.19306 46:0.26801 47:0.03669 48:0.02244 50:0.00014 51:0.00816 53:0.01918 54:0.12695 55:0.03321 56:0.01013 57:0.00134 61:0.00429 62:0.00885 63:0.01652 64:0.04096 65:0.01493 66:0.00319 67:0.00168 68:0.00112 69:0.00063 70:0.00375 71:0.00302 72:0.01409 73:0.11774 74:0.06614 75:0.06206 76:0.00622 77:0.00093 78:0.00659 79:0.00289 80:0.0088 81:0.05801 82:0.00029 83:0.03771 84:0.09892 85:0.04299 86:0.0038 87:0.02041 88:0.03697 89:0.01363 90:0.0058 91:0.01273 92:0.01451 93:0.02553 94:0.01834 95:0.00933 96:0.0052 97:0.00245 98:0.00486 99:0.0035 102:0.0612 103:0.18283 104:0.06042 105:0.00463 106:0.00137 107:0.0032 109:0.0415 110:0.04922 111:0.01004 112:0.00577 113:0.0059 114:0.01898 115:0.07091 116:0.03601 117:0.10526 118:0.05625 119:0.03949 120:0.00646 122:0.0077 123:0.00998 124:0.01853 125:0.02828 126:0.1376 127:0.02458 128:0.03472 129:0.00246 130:0.00114 131:0.0244 132:0.00579 133:0.00995 134:0.02603 135:0.00076 136:0.001 137:0.00327 138:0.00171 140:0.07198 141:0.06806 142:0.04286 143:0.02988 144:0.00355 145:0.0309 146:0.0179 147:0.03713 148:0.06881 149:0.00609 152:0.05071 153:0.0677 154:0.00783 155:0.01007 156:0.00427 157:0.00366 158:0.0249 159:0.01623 160:0.04391 161:0.13713 162:0.0592 163:0.07311 164:0.01862 165:0.00264 166:0.0016 167:0.00569 168:0.00244 170:0.02813 171:0.06617 172:0.06167 173:0.04726 174:0.00836 175:0.00208 177:0.00191 178:0.00547 179:0.0295 180:0.05891 181:0.04407 182:0.02712 183:0.01426 184:0.01575 185:0.00233 186:0.00406 187:0.02297 188:0.02792 189:0.05353 190:0.02758 191:0.02613 192:0.00396 193:0.00554 194:0.00013 195:0.00233 196:0.01053 197:0.05326 198:0.06995 199:0.05192 200:0.05287 201:0.01805 202:0.0024 203:0.00422 204:0.00158 205:0.00606 206:0.01784 207:0.09771 208:0.04802 209:0.06528 210:0.01285 212:0.00652 213:0.0153 214:0.02553 215:0.10849 216:0.05392 217:0.02784 218:0.02569 219:0.01107 220:0.0013 221:0.00374 222:0.00563 223:0.00379 224:0.01544 225:0.01395 226:0.0022 227:0.01562 228:0.01035 229:0.06736 230:0.11212 231:0.06749 232:0.0305 233:0.00146 235:0.01189 236:0.01664 237:0.00083 238:0.00038 240:0.00077 241:0.02086 242:0.1622 243:0.05451 244:0.00284 245:0.00101 246:0.00274 247:0.01328 248:0.04831 249:0.05327 250:0.06676 251:0.11424 252:0.01393 253:0.03246 254:0.01673 255:0.00973 256:0.0142 257:0.02484 258:0.02191 259:0.03527 260:0.01605 261:0.0029 262:0.00786 263:0.03733 264:0.05076 265:0.08539 266:0.07499 268:0.00347 269:0.00721 270:0.0029 271:0.07201 272:0.04008 273:0.03828 274:0.02271 275:0.04286 276:0.01673 277:0.02946 278:0.01722 279:0.0467 280:0.00968 281:0.02982 282:0.0469 283:0.05148 284:0.03352 285:0.01719 286:0.01187 287:0.01128 288:0.01823 
1 1:0.00819 2:0.00582 3:0.00463 4:0.00705 5:0.00366 6:0.04079 7:0.05996 8:0.09018 9:0.12676 10:0.00324 11:0.0044 12:0.00351 13:0.00321 14:0.00193 15:0.00169 16:0.0157 17:0.06156 18:0.15101 19:0.00249 20:0.01568 21:0.03178 22:0.06678 23:0.08774 24:0.11187 25:0.03791 26:0.00454 28:0.00128 29:0.00249 30:0.00769 31:0.00656 32:0.00918 33:0.00899 34:0.00554 35:0.00415 36:0.00205 37:0.03159 38:0.03385 39:0.00118 40:0.0051 41:0.05481 42:0.02944 43:0.04613 44:0.08534 45:0.03046 46:0.06574 47:0.08672 48:0.10283 49:0.05165 50:0.03494 51:0.00718 52:0.0119 53:0.015 54:0.03276 55:0.00342 56:0.02794 57:0.02744 58:0.00652 59:0.00971 60:0.00784 61:0.00318 62:0.00063 63:0.00534 64:0.00069 65:0.01284 66:0.03006 67:0.01139 68:0.04517 69:0.02104 70:0.02828 71:0.0262 72:0.00566 73:0.02249 74:0.01778 75:0.00702 76:0.00592 77:0.00374 78:0.00855 79:0.02479 80:0.01533 81:0.00842 82:0.00542 83:0.00819 84:0.12688 85:0.15714 86:0.03608 87:0.00767 88:0.00087 89:0.0013 90:0.0008 91:0.01292 92:0.0347 93:0.02169 94:0.00215 96:0.00807 97:0.01996 98:0.03684 99:0.07434 100:0.0239 101:0.019 102:0.02581 103:0.02535 104:0.08855 105:0.03553 106:0.03116 107:0.03608 108:0.04556 109:0.04556 110:0.08386 111:0.07507 112:0.09046 113:0.03987 114:0.0249 115:0.00737 116:0.0165 117:0.00153 118:0.01023 119:0.02504 120:0.03657 121:0.009 122:0.00878 123:0.00221 124:0.01121 125:0.00977 126:0.00097 127:0.00969 128:0.02307 129:0.02231 130:0.06982 131:0.17134 132:0.06233 133:0.02775 134:0.00214 135:0.00032 136:0.00472 137:0.00478 138:0.01728 139:0.03989 140:0.01914 141:0.00095 142:0.00705 143:0.00996 144:0.00856 145:0.01008 146:0.04894 147:0.12991 148:0.06994 149:0.01969 150:0.00696 151:0.00239 152:0.00758 153:0.00495 154:0.00619 155:0.01506 156:0.03797 157:0.01369 158:0.01436 159:0.00305 160:0.00266 161:0.00348 162:0.00128 163:0.06337 164:0.1001 165:0.12292 166:0.03645 167:0.00968 168:0.00499 169:0.00149 170:0.00068 171:0.04147 172:0.09597 173:0.04377 174:0.01284 175:0.00178 176:0.00203 178:0.00019 179:0.01168 180:0.05242 181:0.0105 182:0.01454 183:0.00592 184:0.02126 185:0.01288 186:0.02402 187:0.01897 188:0.03573 189:0.02786 190:0.05177 191:0.02862 192:0.00969 193:8e-005 194:0.00243 195:0.02867 196:0.02574 197:0.07704 198:0.05154 199:0.05016 200:0.02122 201:0.00242 202:0.00148 204:0.00296 205:0.01693 206:0.05832 207:0.10497 208:0.02383 209:0.01385 210:0.01379 212:0.0118 213:0.01457 214:0.04146 215:0.09542 216:0.07954 217:0.01226 218:0.01074 219:0.00487 220:0.00814 221:0.00301 222:0.01865 223:0.02384 224:0.03781 225:0.03798 226:0.01538 227:0.00868 228:0.0054 229:0.00862 230:0.00737 231:0.05683 232:0.15628 233:0.14298 234:0.0089 235:0.00853 236:0.01497 237:0.01054 238:0.00038 239:0.00832 240:0.02185 241:0.02293 242:0.012 243:0.02866 244:0.08282 245:0.06808 246:0.05983 247:0.03134 248:0.01362 249:0.01343 250:0.01308 251:0.00474 252:0.01713 253:0.03736 254:0.02929 255:0.05491 256:0.03605 257:0.03356 258:0.04854 259:0.02779 260:0.01992 261:0.01882 262:0.00312 263:0.01219 264:0.01218 265:0.03866 266:0.0123 267:0.00487 268:0.0172 269:0.01646 270:0.00103 271:0.03822 272:0.07233 273:0.06272 274:0.06298 275:0.06572 276:0.03636 277:0.05188 278:0.01049 279:0.01339 280:0.00684 281:0.01582 282:0.01379 283:0.00985 284:0.03108 285:0.02463 286:0.03668 287:0.01963 288:0.00335 
1 1:0.03537 2:0.0346 3:0.00932 4:0.00636 5:0.01235 6:0.0377 7:0.03628 8:0.03687 9:0.03416 10:0.02756 11:0.02689 12:0.00646 13:0.00152 14:0.00612 15:0.00954 16:0.04019 17:0.07111 18:0.03663 19:0.03279 20:0.12353 21:0.06573 22:0.01333 23:0.01667 24:0.03037 25:0.0079 26:0.00811 28:0.00147 29:0.0087 30:0.0144 31:0.05057 32:0.09679 33:0.0452 34:0.00816 35:0.00727 37:0.0148 38:0.00042 39:0.01522 40:0.01452 41:0.00959 42:0.01985 43:0.0341 44:0.06 45:0.05255 46:0.0223 47:0.01694 48:0.04627 49:0.03138 50:0.03438 51:0.02479 52:0.00571 53:0.00878 54:0.05354 55:0.00508 56:0.03061 57:0.08882 58:0.08441 59:0.05756 60:0.01518 61:0.00551 62:0.00977 63:0.01184 64:0.00499 65:0.00708 66:0.03185 67:0.05772 68:0.05115 69:0.04428 70:0.01853 71:0.0049 72:0.00558 73:0.0141 74:0.03502 75:0.01321 76:0.02103 77:0.02187 78:0.00712 79:0.00245 80:0.00348 81:0.0104 82:0.03873 83:0.05372 84:0.01836 85:0.02924 86:0.0206 87:0.02117 88:0.00656 89:0.02356 90:0.03635 91:0.0587 92:0.03088 93:0.03187 94:0.00821 95:0.00189 96:0.01346 97:0.0218 98:0.02343 99:0.0193 100:0.00733 101:0.03162 102:0.08006 103:0.12711 104:0.02331 105:0.03124 106:0.02167 107:0.05388 108:0.03729 109:0.05406 110:0.14333 111:0.10717 112:0.07292 113:0.01875 114:0.01064 115:0.01385 116:0.00445 117:0.0161 119:0.00165 120:0.0201 121:0.03668 122:0.02227 123:0.00773 126:0.002 127:0.00982 128:0.00844 129:0.10294 130:0.1572 131:0.06407 132:0.01531 133:0.00044 134:0.00195 136:0.0059 137:0.00962 138:0.03483 139:0.02468 140:0.01676 141:0.00567 142:0.00802 143:0.00164 144:0.001 145:0.02555 146:0.2118 147:0.06537 148:0.00183 149:0.001 150:0.00473 151:0.00713 152:0.01061 153:0.01116 154:0.12243 155:0.21089 156:0.01603 157:0.01298 158:0.00171 159:0.00182 163:0.00375 164:0.01463 165:0.04754 166:0.04086 167:0.02078 168:0.01147 169:0.00739 170:0.00148 171:0.00185 172:0.06133 173:0.02617 174:0.01972 175:0.00408 176:0.00402 177:0.00271 178:0.00187 179:0.0071 180:0.01819 181:0.0407 182:0.02626 183:0.00794 184:0.00659 185:0.00517 186:0.03471 187:0.02297 188:0.02239 189:0.01868 190:0.02921 191:0.04111 192:0.01689 193:0.00171 194:0.00425 195:0.00258 196:0.01064 197:0.04401 198:0.06874 199:0.07997 200:0.07952 201:0.01469 202:0.00084 203:0.00145 204:0.00257 205:0.03627 206:0.06451 207:0.03185 208:0.08006 209:0.0837 210:0.02366 211:0.00301 212:0.00022 213:0.00257 214:0.01224 215:0.03199 216:0.04632 217:0.06755 218:0.02118 219:0.00664 223:0.0017 224:0.01066 225:0.05824 226:0.07431 227:0.02885 228:0.02326 229:0.02463 230:0.01533 231:0.02758 232:0.0324 233:0.02374 234:0.06673 235:0.08405 236:0.08913 237:0.02387 238:0.00401 239:0.00054 240:0.00082 241:0.00124 242:0.00574 243:0.05348 244:0.11768 245:0.0104 246:0.00394 247:0.0045 248:0.0025 249:0.00209 250:0.01372 251:0.00285 252:0.09666 253:0.05527 254:0.09976 255:0.03987 256:0.02228 257:0.01193 258:0.01806 259:0.02419 260:0.06367 261:0.11239 264:0.00035 265:0.01602 266:0.01716 267:0.02558 268:0.02056 269:0.0269 270:0.01469 271:0.08916 272:0.06586 273:0.04991 274:0.01183 276:0.00208 277:0.04531 278:0.04254 279:0.06553 280:0.00055 281:0.0035 282:0.00323 283:0.00143 284:0.00239 285:0.00109 286:0.02241 287:0.02185 288:0.00265 
1 1:0.06865 2:0.04895 3:0.01066 4:0.00531 5:0.02206 6:0.01005 7:0.01608 8:0.02933 9:0.06803 10:0.03932 11:0.02318 12:0.0153 13:0.00756 14:0.01476 15:0.04169 16:0.01093 17:0.0307 18:0.07167 19:0.00538 20:0.01213 21:0.01719 22:0.02387 23:0.02019 24:0.01234 25:0.01162 26:0.01336 27:0.01534 28:0.01142 29:0.00517 30:0.00192 31:0.03973 32:0.07474 33:0.12474 34:0.0526 35:0.01586 36:0.00815 37:0.01308 38:0.01889 39:0.01876 40:0.05758 41:0.04444 42:0.02233 43:0.01631 44:0.02212 45:0.00897 46:0.02491 47:0.03307 48:0.00701 49:0.01338 50:0.00312 51:0.01543 52:0.01818 53:0.03317 54:0.06838 55:0.02115 56:0.02285 57:0.11173 58:0.1423 59:0.01406 64:0.02376 65:0.01513 66:0.03 67:0.03828 68:0.02785 69:0.03111 70:0.01691 71:0.02413 72:0.04161 73:0.01297 74:0.03863 75:0.03911 76:0.05848 77:0.05512 78:0.01923 79:0.02388 80:0.01475 81:0.01289 82:0.02439 83:0.02355 84:0.01892 85:0.00809 86:0.00605 87:0.00578 88:0.00281 89:0.00998 90:0.00512 91:0.02295 92:0.01042 93:0.02758 94:0.10429 95:0.05491 96:0.00891 97:0.02302 98:0.08954 99:0.04686 100:0.08404 101:0.02348 102:0.00366 103:0.002 104:0.00119 106:0.0037 107:0.02631 108:0.08738 109:0.06977 110:0.07793 111:0.05221 112:0.06015 113:0.03499 114:0.0098 115:0.00129 116:0.00247 117:0.00226 118:0.11528 119:0.03829 120:0.0016 121:0.00546 122:0.01752 123:0.00657 124:0.00025 125:0.01177 126:0.00646 127:0.04599 128:0.0313 129:0.01185 130:0.02849 131:0.03711 132:0.0237 133:0.01551 134:0.01642 135:0.02438 136:0.05013 137:0.08972 138:0.05106 139:0.01229 140:0.01185 141:0.00941 142:0.00596 143:0.00549 144:0.0153 145:0.00815 146:0.01879 147:0.04572 148:0.05916 149:0.02761 150:0.00633 151:0.00267 152:0.00459 153:0.00599 154:0.04287 155:0.02335 156:0.02637 157:0.05821 158:0.11973 159:0.02937 160:0.02 161:0.0059 162:0.02816 163:0.00113 164:0.01785 165:0.05154 166:0.0296 167:0.03736 168:0.0296 169:0.00554 170:0.00295 171:0.00521 172:0.02166 173:0.01336 174:0.03306 175:0.04322 176:0.00502 177:0.05607 178:0.02448 179:0.03146 180:0.05794 181:0.04068 182:0.01733 183:0.01279 184:0.02223 185:0.023 186:0.01322 187:0.03917 188:0.09048 189:0.06818 190:0.02452 191:0.01981 192:0.05081 193:0.01095 194:0.00394 195:0.00513 196:0.0041 197:0.0215 198:0.06148 199:0.04398 200:0.02351 201:0.02462 202:0.02329 203:0.01798 204:0.02827 205:0.03677 206:0.04478 207:0.04259 208:0.0429 209:0.00197 210:0.01122 211:0.00926 212:0.00946 213:0.00403 214:0.00504 215:0.02938 216:0.07162 217:0.0418 218:0.02074 219:0.03275 220:0.01334 221:0.04772 222:0.00448 223:0.02791 224:0.02397 225:0.03081 226:0.02756 227:0.02307 228:0.00079 230:0.00279 231:0.00216 232:0.01993 233:0.02077 234:0.05384 235:0.14666 236:0.02783 237:0.00498 241:0.00445 242:0.03 243:0.08062 244:0.08875 245:0.02276 246:0.00837 247:0.0286 248:0.00297 249:0.02282 250:0.02705 251:0.02877 252:0.08094 253:0.01808 254:0.03858 255:0.00891 256:0.01385 257:0.0179 258:0.03367 259:0.01134 260:0.04481 261:0.01906 262:0.0026 263:0.00149 264:0.00293 265:0.0038 266:0.01602 267:0.01584 268:0.01628 269:0.02815 270:0.01163 271:0.1271 272:0.06689 273:0.0162 274:0.02347 275:0.00089 276:0.00303 277:0.00198 278:0.03007 279:0.1291 280:0.00419 281:0.00035 282:0.00083 283:0.00442 284:0.01565 285:0.00674 286:0.00405 287:0.09648 288:0.1636 
1 1:0.05996 2:0.02451 3:0.02373 4:0.01895 5:0.00405 6:0.01782 7:0.00489 8:0.02726 9:0.04448 10:0.0749 11:0.03275 12:0.00835 13:0.00696 14:0.02267 15:0.0303 16:0.02384 17:0.02664 18:0.04703 20:0.00435 21:0.0334 22:0.07214 23:0.06258 24:0.01294 25:0.00503 26:0.00312 27:0.00175 28:0.01384 29:0.00297 30:0.00545 31:0.06394 32:0.12415 33:0.08167 34:0.00677 35:0.0038 36:0.00303 37:0.02332 38:0.00923 39:0.01225 41:0.00064 42:0.02469 43:0.13922 44:0.15231 45:0.11134 46:0.02799 47:0.00147 48:0.01066 49:0.01333 50:0.00403 51:0.00467 52:0.01328 53:0.02878 54:0.13051 55:0.00116 56:0.03086 57:0.02218 58:0.03394 59:0.03196 60:0.02735 61:0.0167 62:0.03117 63:0.00473 64:0.00012 65:0.00082 66:0.00597 67:0.02069 68:0.04172 69:0.01665 70:0.00102 71:0.00234 72:0.00289 73:0.05613 74:0.03049 75:0.03719 76:0.03942 77:0.02897 78:0.01756 79:0.0393 80:0.03179 81:0.04617 82:0.13001 83:0.00564 84:0.0009 85:0.00041 86:0.00145 87:0.00055 88:0.00065 89:0.00412 90:0.06752 91:0.01601 92:0.01328 93:0.03715 94:0.10382 95:0.07895 96:0.05904 97:0.04794 98:0.03894 99:0.02093 100:0.00161 101:0.00244 102:0.00441 103:0.01236 104:0.01263 105:0.00205 106:0.00395 107:0.00487 108:0.00135 109:0.08929 110:0.10834 111:0.02049 112:0.00949 113:0.00246 114:0.00263 115:0.01252 116:0.00112 117:0.01916 118:0.11047 119:0.14318 120:0.07533 121:0.01338 122:0.00761 123:0.01825 124:0.00655 125:0.00336 126:0.02119 127:0.00245 128:0.00844 129:0.01844 130:0.01061 131:0.01856 132:0.01302 133:0.00146 134:0.00846 135:0.00669 136:0.12464 137:0.07872 138:0.00174 139:0.00663 140:0.00306 141:0.0075 142:0.00714 143:0.00349 144:0.01416 145:0.00129 146:0.00396 147:0.04637 148:0.14469 149:0.10096 150:0.01824 151:0.00402 152:0.0109 155:0.01343 156:0.02415 157:0.0457 158:0.07495 159:0.01518 160:0.00788 161:0.01167 162:0.00702 163:0.00742 164:0.03571 165:0.08409 166:0.09872 167:0.05266 168:0.01024 169:0.00434 170:0.00488 171:0.0021 172:0.03761 173:0.05364 174:0.01396 175:0.00785 176:0.0053 178:0.0004 179:0.01747 180:0.03319 181:0.03075 182:0.0387 183:0.04695 184:0.02919 185:0.02782 186:0.10925 187:0.04871 188:0.09483 189:0.0637 190:0.00762 191:0.0105 192:0.01163 193:0.01732 194:0.02335 195:0.01805 196:0.01013 197:0.01085 198:0.00709 199:0.01686 200:0.103 201:0.01721 202:0.00713 203:0.005 204:0.00543 206:0.00091 207:0.00666 208:0.07577 209:0.01192 210:0.00148 211:0.00054 213:0.01031 214:0.01376 215:0.02007 216:0.09751 217:0.0155 218:0.01459 219:0.01036 220:0.01008 221:0.00761 222:0.00265 223:0.02535 224:0.0831 225:0.06025 226:0.00578 227:0.00481 228:0.00205 229:0.00513 230:0.01307 231:0.02205 232:0.01454 233:0.01606 234:0.0106 235:0.15613 236:0.01984 237:0.01394 238:0.00243 239:0.00136 240:0.0031 241:0.01189 242:0.03149 243:0.1172 244:0.12225 245:0.03643 246:0.00905 247:0.00936 248:0.00588 249:0.00294 250:0.00304 251:0.02045 252:0.10963 253:0.0251 254:0.01607 255:0.00784 256:0.00138 257:0.01679 258:0.00969 259:0.01344 260:0.01919 261:0.02622 262:0.00156 263:0.00408 264:0.00638 265:0.0028 266:0.00033 267:0.00406 268:0.02215 269:0.01691 270:0.01284 271:0.1217 272:0.04186 273:0.00954 276:0.00369 277:0.00374 278:0.03524 279:0.14107 280:0.05105 281:0.02888 282:0.00689 283:0.01503 284:0.0317 285:0.01833 286:8e-005 287:0.05846 288:0.22591 
1 1:0.00313 2:0.0088 3:0.03009 4:0.1829 5:0.08156 6:0.03547 7:0.00705 8:0.01376 9:0.00762 10:0.00199 11:0.0015 12:0.01431 13:0.01521 14:0.01847 15:0.01046 16:0.01781 17:0.01446 18:0.01063 19:0.00086 20:0.00378 21:0.15033 22:0.23444 23:0.02655 24:0.01434 25:0.00075 26:0.00339 27:0.00131 28:0.00257 29:0.00084 30:0.00636 31:0.02753 32:0.01989 33:0.01234 34:0.01316 35:0.00136 36:0.005 37:0.00313 38:0.02804 39:0.02868 40:0.0196 41:0.02161 42:0.02718 43:0.12433 44:0.11746 45:0.024 46:0.01033 47:0.01479 48:0.03115 49:0.01547 50:0.00895 51:0.02944 52:0.02738 53:0.0301 54:0.02512 55:0.01457 56:0.00808 57:0.00363 58:0.00493 59:0.01064 60:0.03219 61:0.05364 62:0.04849 63:0.03175 64:0.02328 65:0.0457 66:0.04638 67:0.00194 69:0.00268 70:0.01737 71:0.03241 72:0.03556 73:0.00328 74:0.03679 75:0.0315 76:0.04299 77:0.0207 78:0.00676 79:0.00632 80:0.00857 81:0.00402 82:0.24877 83:0.13221 84:0.03401 86:0.00527 87:0.01275 88:0.0029 89:0.01201 90:0.05059 91:0.01611 92:0.00873 93:0.00403 94:0.001 95:0.01147 96:0.0032 97:0.00694 98:0.05031 99:0.02112 100:0.01606 101:0.00735 102:0.00627 103:0.00922 104:0.00908 105:0.0056 106:0.00213 107:0.06368 108:0.09825 109:0.03331 110:0.07846 111:0.06706 112:0.04728 113:0.02501 114:0.00984 115:0.01226 116:0.00339 117:0.01926 118:0.00076 119:0.01018 120:0.04905 121:0.04558 122:0.00385 123:0.00166 124:0.00476 125:0.00422 126:0.0009 128:0.01729 129:0.04437 130:0.06083 131:0.05224 132:0.05684 133:0.07301 134:0.02877 135:0.00613 136:0.00097 137:0.00202 138:0.0419 139:0.0958 140:0.05747 141:0.03175 142:0.00742 143:0.00593 144:0.00043 145:0.0002 146:0.0436 147:0.07407 148:0.09714 149:0.04293 150:0.0059 151:0.0026 152:0.00087 153:0.00082 154:0.04757 155:0.28671 156:0.11469 157:0.01392 158:0.001 162:0.00041 163:0.00088 164:0.01043 165:0.04477 166:0.05652 167:0.04977 168:0.00992 169:0.0011 170:0.00286 171:0.00031 172:0.0232 173:0.01186 174:0.01269 175:0.00416 176:0.00184 177:0.00564 178:0.01015 179:0.00746 180:0.01403 181:0.04945 182:0.11145 183:0.0286 184:0.02783 185:0.0338 186:0.01075 187:0.00963 188:0.0376 189:0.02202 190:0.02485 191:0.00729 192:0.00723 193:0.00425 194:0.00569 196:0.00182 197:0.02947 198:0.01792 199:0.10257 200:0.1461 201:0.00798 202:0.00252 203:0.00581 204:0.00561 205:0.00443 206:0.02027 207:0.02607 208:0.04192 209:0.02783 210:0.01086 211:0.00362 212:0.00302 213:0.0034 214:0.00632 215:0.05052 216:0.10151 217:0.01669 218:0.01674 219:0.01381 220:0.01093 221:0.01947 222:0.03126 223:0.05222 224:0.02991 225:0.04769 226:0.01912 227:0.03352 228:0.01194 229:0.01475 230:0.00039 231:0.03658 232:0.02367 233:0.0495 234:0.02219 235:0.10835 236:0.01289 237:0.00468 238:0.00112 239:0.00086 240:0.00365 241:0.00401 242:0.00526 243:0.10126 244:0.1537 245:0.0781 246:0.00757 247:0.00033 248:0.00357 249:0.00272 250:0.0104 251:0.0077 252:0.04344 253:0.06216 254:0.00105 255:0.02193 256:0.02806 257:0.01123 258:0.01771 259:0.01782 260:0.03917 261:0.02187 262:0.00382 263:0.0122 264:0.01863 265:0.04132 266:0.0505 267:0.07353 268:0.09579 269:0.03469 270:0.00586 271:0.05963 272:0.00795 273:0.00341 274:0.00016 277:0.00475 278:0.11999 279:0.08812 280:0.01237 281:0.00489 282:0.00906 283:0.00916 284:0.0218 285:0.02017 286:0.02558 287:0.03835 288:0.01728 
1 1:0.00768 2:0.00726 3:0.01506 4:0.01204 5:0.01579 6:0.02079 7:0.02959 8:0.01742 9:0.0093 10:0.02819 11:0.01609 12:0.02616 13:0.05352 14:0.07039 15:0.07989 16:0.0569 17:0.05402 18:0.01462 19:0.00301 20:0.003 21:0.01137 22:0.01949 23:0.03036 24:0.0258 25:0.03332 26:0.00808 27:0.003 28:0.00702 29:0.023 30:0.09208 31:0.06688 32:0.06951 33:0.03141 34:0.01954 35:0.00812 36:0.01031 37:0.00408 38:0.00497 39:0.01796 40:0.10705 41:0.06001 42:0.00548 43:0.00286 44:0.00243 45:0.00287 46:0.00153 47:0.00497 48:0.03821 49:0.15118 50:0.0514 51:0.01289 52:0.00572 53:0.00972 54:0.00666 55:0.03986 56:0.03917 57:0.04598 58:0.03849 59:0.00793 60:0.00145 61:0.00287 62:0.01095 63:0.06146 64:0.0216 65:0.00565 66:0.01504 67:0.02128 68:0.02501 69:0.02139 70:0.01769 71:0.04786 72:0.08634 73:0.0081 74:0.00769 75:0.02876 76:0.08437 77:0.0434 78:0.01771 79:0.00883 80:0.04842 81:0.12738 82:0.02973 83:0.00353 84:0.00539 85:0.05319 86:0.09316 87:0.03332 88:0.01431 89:0.02648 90:0.0559 91:0.01956 92:0.00364 93:0.0008 95:0.00154 96:0.00166 97:0.00495 98:0.05494 99:0.08688 100:0.00601 101:0.0044 102:0.00178 103:0.00081 104:0.00246 105:0.01331 106:0.01482 107:0.03455 108:0.05819 109:0.0067 110:0.00691 111:0.01641 112:0.03178 113:0.08396 114:0.0285 115:0.00975 116:0.00601 117:0.00873 118:0.01054 119:0.02111 120:0.06177 121:0.18665 122:0.09264 123:0.0044 124:0.01262 125:0.00542 126:0.00659 127:0.00739 128:0.0076 129:0.00533 130:0.01506 131:0.03559 132:0.03657 133:0.00978 134:0.01083 135:0.00696 136:0.01497 137:0.01434 138:0.05916 139:0.07585 140:0.04215 141:0.0058 142:0.03039 143:0.01278 144:0.00899 145:0.00051 146:0.00214 147:0.01355 148:0.06809 149:0.10642 150:0.01886 151:0.00973 152:0.00599 153:0.0056 154:0.00425 155:0.02404 156:0.07337 157:0.04184 158:0.03539 159:0.01495 160:0.04817 161:0.03646 162:0.01157 163:0.01241 164:0.02089 165:0.0533 166:0.08747 167:0.09492 168:0.02831 169:0.00968 170:0.00709 171:0.03591 172:0.00726 173:0.01985 174:0.03779 175:0.01478 176:0.01986 177:0.01031 178:0.00821 179:0.00621 180:0.00482 181:0.14024 182:0.08082 183:0.05859 184:0.01478 185:0.01103 186:0.00212 187:0.00239 188:0.00501 189:0.06929 190:0.05629 191:0.03763 192:0.01116 193:0.0093 194:0.01226 195:0.01286 196:0.0018 197:0.0191 198:0.12756 199:0.00583 200:0.01865 201:0.02558 202:0.01766 203:0.01508 204:0.0068 205:0.0109 206:0.00853 207:0.00421 208:0.02538 209:0.02338 210:0.04344 211:0.02058 212:0.01437 213:0.0191 214:0.02166 215:0.02891 216:0.01773 217:0.03221 218:0.00384 223:0.00746 224:0.05317 225:0.10195 226:0.00272 227:0.00211 228:0.00305 229:0.0004 230:0.00308 231:0.00272 232:0.01592 233:0.06159 234:0.03995 235:0.00913 236:0.0026 237:0.00614 238:0.00264 239:0.01233 240:0.00893 241:0.04295 242:0.07804 243:0.03008 244:0.08337 245:0.00949 246:0.00691 247:0.00854 248:0.00904 249:0.01347 250:0.02523 251:0.11583 252:0.2051 253:0.00559 254:0.00226 255:0.00319 256:0.00598 257:0.0108 258:0.00632 259:0.00348 260:0.00714 261:0.00378 262:0.0011 263:0.00791 264:0.02876 265:0.03722 266:0.02332 267:0.01808 268:0.00904 269:0.01084 270:0.00359 271:0.02642 272:0.01039 273:0.00271 274:0.0001 275:0.00098 276:0.00251 277:0.00492 278:0.02709 279:0.30945 280:0.0441 281:0.04117 282:0.01748 283:0.0279 284:0.01973 285:0.00215 286:0.00127 287:0.02373 288:0.24951 
1 1:0.00772 2:0.06628 3:0.0288 4:0.02198 5:0.00868 6:0.01833 7:0.02318 8:0.04133 9:0.05673 10:0.09765 11:0.0525 12:0.05637 13:0.04418 14:0.01956 15:0.02505 16:0.02632 17:0.0332 18:0.09481 19:0.00231 20:0.00457 21:0.0122 22:0.00829 23:0.01749 24:0.01144 25:0.0152 26:0.01107 27:0.00632 28:0.00961 29:0.04063 30:0.03324 31:0.03812 32:0.03199 33:0.02051 34:0.01081 35:0.00112 36:0.00239 37:0.02639 38:0.01689 39:0.0161 40:0.00279 41:0.00143 42:0.00207 43:0.00811 44:0.02086 45:0.01765 46:0.05671 47:0.01194 48:0.00953 49:0.00254 50:0.00072 51:0.00818 52:0.02709 53:0.06341 54:0.08439 55:0.01139 56:0.01069 57:0.03137 58:0.07912 59:0.08059 60:0.0752 61:0.04756 62:0.05173 63:0.0119 64:0.02045 65:0.00683 66:0.01838 67:0.05412 68:0.04015 69:0.02255 70:0.0205 71:0.02565 72:0.01502 73:0.07111 74:0.02249 75:0.02013 76:0.00493 77:0.00796 78:0.01936 79:0.012 80:0.03683 81:0.1227 82:0.17183 83:0.02703 84:0.00681 85:0.00082 86:0.00068 87:0.00526 88:0.01002 89:0.01603 90:0.11156 91:0.01383 92:0.00676 93:0.02023 94:0.07493 95:0.03356 96:0.01918 97:0.00626 98:0.01635 99:0.01641 100:0.02563 101:0.02678 102:0.02419 103:0.01011 104:0.00286 105:0.00723 106:0.00766 107:0.01494 108:0.00553 109:0.09724 110:0.04465 111:0.04801 112:0.00387 113:0.00091 114:0.00475 115:0.01068 116:0.01076 117:0.06892 118:0.03714 119:0.01674 120:0.011 121:0.01903 122:0.03517 123:0.01915 124:0.01265 125:0.02553 126:0.03057 127:0.01253 128:0.03872 129:0.0893 130:0.14085 131:0.04185 132:0.01107 133:0.00338 134:0.00317 135:0.00415 136:0.00721 137:0.0171 138:0.01938 139:0.03531 140:0.03681 141:0.01535 142:0.01025 143:0.00955 144:0.00725 145:0.00879 146:0.0273 147:0.01366 148:0.00718 149:0.01185 151:0.00167 152:0.00399 153:0.01483 154:0.00764 155:0.03495 156:0.05159 157:0.01638 158:0.04697 159:0.02772 160:0.0114 161:0.00646 162:0.00938 163:0.09142 164:0.03433 165:0.01474 166:0.00805 167:0.01426 168:0.00991 169:0.00687 170:0.04225 171:0.09419 172:0.104 173:0.06884 174:0.0398 175:0.00876 176:0.01257 178:0.01129 179:0.02278 180:0.11419 181:0.01042 182:0.04505 183:0.09467 184:0.12239 185:0.06599 186:0.0072 187:0.00344 188:0.01337 189:0.0019 190:0.02274 191:0.01517 192:0.01003 193:0.02412 194:0.01319 195:0.02611 196:0.0075 197:0.04547 198:0.05724 199:0.03004 200:0.064 201:0.05495 202:0.00411 203:0.00092 204:0.00069 205:0.00054 206:0.0064 207:0.00542 208:0.09905 209:0.02121 210:0.00476 211:0.00198 212:0.00181 213:0.00442 214:0.00655 215:0.0283 216:0.07887 217:0.02724 218:0.01927 219:0.00482 220:0.00965 221:0.01562 222:0.01178 223:0.0256 224:0.09552 225:0.05487 226:0.04903 227:0.0259 228:0.00159 230:0.00368 231:0.00548 232:0.01297 233:0.0312 234:0.04955 235:0.10684 236:0.03627 237:0.01738 238:0.00498 241:0.00722 242:0.02216 243:0.09858 244:0.06941 245:0.0275 246:0.00075 247:0.00052 248:0.00022 249:0.00338 250:0.01859 251:0.05471 252:0.08772 253:0.01097 254:0.03357 255:0.03104 256:0.04021 257:0.06901 258:0.07356 259:0.06298 260:0.0834 261:0.04445 262:0.00272 263:0.00925 264:0.01412 265:0.00962 266:0.01296 267:0.01248 268:0.0049 269:0.01047 270:0.00602 271:0.0472 272:0.02185 273:0.00585 274:0.00647 275:0.00415 276:0.0038 277:0.03226 278:0.1004 279:0.10697 280:0.01314 281:0.01419 282:0.01233 283:0.00297 284:0.00653 285:0.0102 286:0.0194 287:0.03306 288:0.02749 
1 1:0.04312 2:0.02981 3:0.02706 4:0.00275 5:0.01464 7:0.02473 8:0.09312 9:0.06179 10:0.04681 11:0.12256 12:0.08965 13:0.02138 14:0.00457 15:0.01979 16:0.022 17:0.04162 18:0.04844 19:0.00184 20:0.01095 21:0.03975 22:0.01375 23:0.04209 24:0.0055 25:0.0124 26:0.00322 28:0.00283 29:0.02844 30:0.05451 31:0.01307 32:0.03477 33:0.00275 34:0.00523 35:0.00129 36:0.01379 37:0.01151 38:0.01216 39:0.0124 40:0.00088 41:0.00085 42:0.0014 43:0.00338 44:0.01688 45:0.0256 46:0.04079 47:0.01539 48:0.01265 49:0.00844 50:0.00121 51:0.00224 52:0.00628 53:0.01071 54:0.05997 55:0.00605 56:0.00915 57:0.00607 58:0.01161 59:0.0247 60:0.03162 61:0.01419 62:0.00401 63:0.00729 64:0.0208 65:0.01655 66:0.04582 67:0.05316 68:0.05378 69:0.05455 70:0.07975 71:0.0881 72:0.23007 73:0.0449 74:0.02026 75:0.007 76:0.00545 77:0.00405 78:0.00523 79:0.01786 80:0.01181 81:0.06757 82:0.05215 83:0.02038 84:0.01763 85:0.00646 86:0.00339 87:0.00363 88:0.00234 89:0.01988 90:0.04312 91:0.10014 92:0.01692 93:0.01609 94:0.01251 95:0.01152 96:0.01348 97:0.00668 98:0.02046 99:0.10914 100:0.14898 101:0.03893 102:0.02237 103:0.01874 104:0.01336 105:0.00568 106:0.00423 107:0.02246 108:0.06519 109:0.03412 110:0.01385 111:0.00496 113:0.00031 114:0.00148 115:0.0067 116:0.01587 117:0.0318 118:0.01244 119:0.01943 120:0.02059 121:0.02435 122:0.0201 123:0.0153 124:0.0107 125:0.01431 126:0.01617 127:0.2282 128:0.17233 129:0.0538 130:0.00849 131:0.00511 132:0.00294 133:0.00123 134:0.0047 135:0.01904 136:0.01427 137:0.07181 138:0.10137 139:0.01679 140:0.01648 141:0.01287 142:0.00202 143:0.00248 144:0.00358 145:0.01409 146:0.0167 147:0.0224 148:0.00511 149:0.01039 150:0.00913 151:0.01997 152:0.00671 153:0.00411 154:0.00721 155:0.01314 156:0.01447 157:0.00368 158:0.00592 159:0.00361 160:0.0098 161:0.00941 162:0.00458 163:0.00706 164:0.04995 165:0.06865 166:0.03417 167:0.05148 168:0.03629 169:0.04103 170:0.09304 171:0.07465 172:0.01823 173:0.03197 174:0.05413 175:0.02932 176:0.0378 177:0.04054 178:0.04082 179:0.06394 180:0.04653 181:0.00233 182:0.00343 183:0.01345 184:0.0272 185:0.01255 186:0.00113 187:0.00382 188:0.0032 189:0.00268 190:0.00672 191:0.02216 192:0.09574 193:0.14659 194:0.06916 195:0.06659 196:0.01504 197:0.00741 198:0.00086 199:0.00811 200:0.01384 201:0.01563 202:0.01073 203:0.01416 204:0.00824 205:0.01181 206:0.00544 207:0.00111 208:0.09131 209:0.16013 210:0.05686 211:0.02328 212:0.0155 213:2e-005 214:0.00535 215:0.00996 216:0.04845 217:0.01653 218:0.02166 219:0.01136 220:0.01947 221:0.00886 222:0.01481 223:0.02118 224:0.02778 225:0.05782 226:0.0259 227:0.02113 228:0.00983 229:0.02223 230:0.01106 231:0.00521 232:0.00964 233:0.02452 234:0.022 235:0.13499 236:0.03713 237:0.00723 238:0.00205 239:0.00446 240:0.00251 241:0.00276 242:0.012 243:0.13652 244:0.16026 245:0.00418 246:0.00847 247:0.00592 248:0.00474 249:0.00222 250:0.00787 251:0.01062 252:0.10508 253:0.00393 254:0.00433 255:0.00322 256:0.01687 257:0.01045 258:0.00878 259:0.00908 260:0.00875 261:0.00654 262:0.00252 263:0.00504 264:0.03442 265:0.11467 266:0.08292 267:0.023 268:0.00144 269:0.0058 270:0.00279 271:0.07281 272:0.03218 273:0.00223 274:0.0098 275:0.00497 276:0.00719 277:0.01125 278:0.04251 279:0.2186 280:0.01976 281:0.00877 282:0.00625 283:0.00181 284:0.00241 285:0.03162 286:0.04088 287:0.07921 288:0.06319 
1 1:0.01997 2:0.002 3:0.00027 4:0.00236 5:0.00725 6:0.02674 7:0.03784 8:0.04266 9:0.03559 10:0.05279 11:0.0219 12:0.00397 13:0.00117 14:0.00442 15:0.0052 16:0.03235 17:0.12791 18:0.09339 19:0.03524 20:0.05 21:0.02456 22:0.02415 23:0.03857 24:0.06664 25:0.05514 26:0.03071 27:0.01001 28:0.00769 29:0.00984 30:0.00484 31:0.00461 32:0.01158 33:0.02155 34:0.04827 35:0.02792 36:0.0109 37:0.13564 38:0.14091 39:0.03067 40:0.00179 41:0.00303 43:0.00531 44:0.01827 45:0.02499 46:0.20742 47:0.07644 48:0.01253 49:0.00612 50:0.00337 51:0.00769 52:0.00609 53:0.00598 54:0.1097 55:0.00193 56:0.00189 57:0.00229 58:0.00128 59:0.00573 60:0.00261 61:0.00883 62:0.02607 63:0.01872 64:0.00468 65:0.00287 66:0.00681 67:0.00626 68:0.01434 69:0.01648 70:0.02395 71:0.02967 72:0.02964 73:0.01518 74:0.05082 75:0.13043 76:0.10213 77:0.01872 78:0.03505 79:0.02806 80:0.00887 81:0.01568 82:0.03906 83:0.02203 84:0.01154 85:0.00416 86:0.00547 87:0.00886 88:0.00853 89:0.01075 90:0.03686 91:0.026 92:0.01488 93:0.03714 94:0.08377 95:0.13414 96:0.04608 97:0.06752 98:0.00725 99:0.0087 100:0.00075 101:0.00166 102:0.00596 103:0.00102 104:0.00889 105:0.00325 106:0.00044 107:9e-005 108:0.00025 109:0.03482 110:0.02178 111:0.00701 112:0.00287 113:0.00308 114:0.00081 115:0.00681 116:0.0121 117:0.03129 118:0.06502 119:0.0133 120:0.02031 121:0.01074 122:0.04591 123:0.0638 124:0.04147 125:0.05382 126:0.10828 127:0.0005 128:0.00377 129:0.01137 130:0.02748 131:0.05354 132:0.05077 133:0.0177 134:0.00193 135:0.0018 136:0.00406 137:0.00961 138:0.0148 139:0.04138 140:0.0318 141:0.088 142:0.07872 143:0.00711 144:0.01244 145:0.06641 146:0.19495 147:0.04218 148:0.00598 149:0.0046 150:0.00088 151:0.00188 152:0.00241 153:0.00475 154:0.08361 155:0.10523 156:0.04882 157:0.01071 158:0.01224 159:0.01896 160:0.05034 161:0.0388 162:0.09465 163:0.01341 164:0.01346 165:0.00848 166:0.01353 167:0.01388 168:0.00969 169:0.01489 170:0.01531 171:0.02415 172:0.01101 173:0.01144 174:0.0078 175:0.00737 176:0.00484 177:0.00904 178:0.00674 179:0.01023 180:0.01732 181:0.14442 182:0.01324 183:0.00512 184:0.00353 185:0.00185 186:0.00834 187:0.01044 188:0.00628 189:0.1862 190:0.09861 191:0.04935 192:0.00696 193:0.01108 194:0.00914 195:0.01042 196:0.05733 197:0.06124 198:0.15188 199:0.00647 200:0.01278 201:0.00816 202:0.0085 203:0.00607 204:0.00646 205:0.00999 206:0.00975 207:0.00604 208:0.01586 209:0.01389 210:0.00653 211:0.00654 212:0.00826 213:0.00475 214:0.00822 215:0.0111 216:0.01519 217:0.01076 218:0.00621 219:0.01574 220:0.04391 221:0.10954 222:0.06412 223:0.11198 224:0.05741 225:0.05718 226:0.0029 227:0.00579 228:0.02604 229:0.01094 230:0.00566 231:0.00067 232:0.0008 233:0.00053 234:0.00147 235:0.04167 236:0.05462 237:0.0167 238:0.02369 239:0.03554 240:0.01161 241:0.00207 242:0.00613 243:0.03625 244:0.03484 245:0.02375 246:0.03101 247:0.0187 248:0.00801 249:0.00386 250:0.01612 251:0.02972 252:0.07408 253:0.00492 254:0.00219 255:0.00811 256:0.04363 257:0.0092 258:0.00158 259:0.00866 260:0.00854 261:0.00399 262:0.00136 263:0.04895 264:0.21414 265:0.07844 266:0.03012 267:0.00862 268:0.00658 269:0.0025 270:0.00165 271:0.03299 272:0.01578 273:0.02763 274:0.03 275:0.01248 276:0.01158 277:0.02844 278:0.02545 279:0.01948 280:0.05415 281:0.06537 282:0.05718 283:0.01193 284:0.01509 285:0.00291 286:0.00729 287:0.02789 288:0.07116 
1 1:0.02962 2:0.00713 3:0.00307 4:0.00386 5:0.00983 6:0.00405 7:0.0248 8:0.02798 9:0.01048 10:0.0347 11:0.01737 12:0.00464 14:0.0035 15:0.00362 16:0.0125 17:0.02989 18:0.03376 19:0.02185 20:0.00995 21:0.01394 22:0.02497 23:0.0098 24:0.04276 25:0.06505 26:0.05076 27:0.02125 28:0.0698 29:0.04811 30:0.0201 31:0.03542 32:0.03028 33:0.00801 34:0.07783 35:0.1301 36:0.05922 37:0.01352 38:0.01081 39:0.00529 40:0.00211 41:0.00524 42:0.0018 43:0.00287 44:0.00467 45:0.00759 46:0.00123 47:0.0035 48:0.01618 49:0.21884 50:0.13779 51:0.00399 52:0.00276 53:0.00385 54:0.0012 55:0.03808 56:0.02037 57:0.02032 58:0.0364 59:0.0304 60:0.03582 61:0.03577 62:0.00695 63:0.01439 64:0.02649 65:0.02858 66:0.02828 67:0.04248 68:0.03418 69:0.01965 70:0.03041 71:0.04659 72:0.06162 73:0.02008 74:0.01139 75:0.01695 76:0.03677 77:0.04085 78:0.01546 79:0.01518 80:0.01579 81:0.0222 82:0.01202 83:0.00961 84:0.00418 85:0.00227 86:0.00665 87:0.00124 88:0.00462 89:0.00489 90:0.01859 91:0.16672 92:0.03003 93:0.01409 94:0.00831 95:0.0011 96:0.00335 97:0.0042 98:0.01374 99:0.12182 100:0.3072 101:0.01952 102:0.00185 103:0.00126 104:0.00282 106:0.00245 107:0.00924 108:0.03359 109:0.00461 110:0.00114 111:0.00327 112:0.00234 113:0.00374 114:0.00148 115:0.00701 116:0.01351 117:0.0045 118:0.00327 119:0.00278 120:0.00423 121:0.00439 122:0.00701 123:0.00641 124:0.01196 125:0.00564 126:0.00291 127:0.28886 128:0.08868 129:0.03193 130:0.02242 131:0.0059 132:0.00338 133:0.00194 134:0.00753 135:0.02017 136:0.15979 137:0.08551 138:0.11289 139:0.03524 140:0.00976 141:0.00461 142:0.00278 143:0.00518 144:0.02322 145:0.00081 146:0.00553 147:0.01348 148:0.03494 149:0.03041 150:0.02112 151:0.0179 152:0.01728 153:0.00265 154:0.01534 155:0.01729 156:0.02914 157:0.03285 158:0.06281 159:0.02558 160:0.01481 161:0.02528 162:0.02153 163:0.01361 164:0.021 165:0.06359 166:0.03943 167:0.0095 169:0.00088 170:0.01037 171:0.01158 172:0.03683 173:0.05874 174:0.13406 175:0.03392 176:0.03896 177:0.03049 178:0.00728 179:0.04026 180:0.06074 181:0.00162 182:0.00805 183:0.03983 184:0.04875 185:0.03376 186:0.01748 187:0.0272 188:0.00336 189:0.00095 190:0.03308 191:0.02883 192:0.03658 193:0.04479 194:0.05173 195:0.03258 196:0.05799 197:0.04391 198:0.0387 199:0.0324 200:0.03099 201:0.01983 202:0.01106 203:0.01087 204:0.00078 205:0.002 206:0.0114 207:0.04465 208:0.07058 209:0.03478 210:0.01714 211:0.00042 213:0.00133 214:0.02008 215:0.05222 216:0.09027 217:0.03336 218:0.0129 219:0.00406 220:0.00056 221:0.00949 222:0.00919 223:0.00821 224:0.03136 225:0.0429 226:0.02958 227:0.0182 228:0.00245 229:0.00564 230:0.01113 231:0.01631 232:0.01637 233:0.01603 234:0.02544 235:0.06869 236:0.01698 237:0.00299 238:0.01791 239:0.02509 240:0.03459 241:0.02871 242:0.05454 243:0.0583 244:0.12278 245:0.05128 246:0.01359 247:0.00797 248:0.00442 249:0.01388 250:0.00369 251:0.0311 252:0.15032 253:0.00384 254:0.00949 255:0.02425 256:0.01666 257:0.01186 258:0.00965 259:0.01246 260:0.00393 261:0.00461 262:0.00216 263:0.00525 264:0.0371 265:0.03088 266:0.02317 267:0.05064 268:0.04835 269:0.00388 270:0.00161 271:0.00794 272:0.00019 273:0.00143 274:0.00193 275:0.00674 276:0.018 277:0.0194 278:0.11603 279:0.19871 280:0.00082 281:0.00257 282:0.00151 283:0.00182 284:0.00728 285:0.03663 286:0.06767 287:0.13938 288:0.07215 
1 1:0.01219 2:0.03161 3:0.02704 4:0.01096 5:0.01168 6:0.00299 7:0.00356 8:0.00387 9:0.00521 10:0.01362 11:0.03445 12:0.02595 13:0.00299 14:0.00298 16:0.00106 17:0.00487 18:0.01999 19:0.01204 20:0.01829 21:0.01269 22:0.00589 23:0.01318 24:0.0015 25:0.04204 26:0.05143 27:0.01565 28:0.11682 29:0.0251 30:0.00641 31:0.01065 32:0.00468 33:0.00288 34:0.0388 35:0.15211 36:0.25484 37:0.00062 38:0.00465 39:0.00506 41:0.0008 43:0.00604 44:0.03285 45:0.04589 46:0.00123 47:0.00646 48:0.00169 50:0.00159 51:0.00091 52:0.01657 53:0.02426 54:0.03306 55:0.12238 56:0.02453 57:0.00865 58:0.01192 59:0.0327 60:0.00443 61:0.0529 62:0.04213 63:0.03032 64:0.06008 65:0.04913 66:0.03588 67:0.02726 68:0.0347 69:0.06401 70:0.03408 71:0.09545 72:0.0878 73:0.00563 74:0.00977 75:0.00854 77:0.00179 78:0.00135 79:0.00447 80:0.01289 81:0.01903 82:0.00494 83:0.00423 84:0.0019 87:0.00135 88:0.0311 89:0.04314 90:0.02584 91:0.14818 92:0.03229 93:0.03796 94:0.04367 95:0.02185 96:0.01047 97:0.01238 98:0.05349 99:0.0794 100:0.00693 101:0.07281 102:0.11317 103:0.08494 104:0.02631 105:0.00774 106:0.02307 107:0.02487 108:0.02451 109:0.002 110:0.11057 111:0.23821 112:0.02108 113:0.00764 115:0.00764 116:0.00586 117:0.00971 118:0.00181 119:0.00509 120:0.01525 122:0.01798 124:0.00764 125:0.00253 126:0.00723 127:0.0025 128:0.03965 129:0.13146 130:0.00424 131:0.01439 133:0.00762 134:0.00589 135:0.0052 136:0.01997 137:0.12959 138:0.13824 139:0.0095 140:0.0036 142:0.00573 143:0.00523 144:0.01693 145:0.00394 146:0.00309 147:0.00443 148:0.06518 149:0.0577 150:0.05771 151:0.04409 152:0.01517 153:0.01174 154:0.02578 155:0.0075 156:0.00828 157:0.0617 158:0.0272 159:0.03328 160:0.03732 161:0.02372 162:0.02837 163:0.00801 164:0.00342 165:0.00594 166:0.0737 167:0.02977 168:0.00047 169:0.00171 170:0.00934 171:0.01099 172:0.04073 173:0.00959 174:0.05203 175:0.10897 176:0.02834 177:0.00237 178:0.00468 179:0.02433 180:0.06942 181:0.01524 182:0.00454 183:0.00557 184:0.04806 185:0.07347 186:0.01511 187:0.00829 188:0.00615 189:0.00343 190:0.00299 191:0.03006 192:0.03457 193:0.13798 194:0.1018 195:0.03327 196:0.0251 197:0.02269 198:0.01846 199:0.00935 200:0.00715 201:0.00983 202:0.0258 203:0.02844 204:0.01317 205:0.01706 206:0.04498 207:0.04493 208:0.01007 209:0.02246 210:0.01749 211:0.01185 212:0.01411 213:0.00656 214:0.00733 215:0.0485 216:0.07415 217:0.02 218:0.00707 219:0.0127 220:0.10454 221:0.07792 222:0.04035 223:0.00995 224:0.0048 225:0.01335 227:0.00799 228:0.03704 229:0.0944 230:0.08518 231:0.02679 232:0.00011 234:0.00165 235:0.07913 236:0.0271 237:0.00827 238:0.00835 239:0.01426 240:0.01654 241:0.00807 242:0.01987 243:0.05482 244:0.02107 245:0.01017 246:0.00631 247:0.00861 248:0.04273 249:0.0485 250:0.00734 251:0.02513 252:0.04989 253:0.01058 254:0.02106 255:0.05286 256:0.02471 257:0.0586 258:0.08239 259:0.02243 260:0.00597 261:0.00868 262:0.00664 263:0.03822 264:0.07215 265:0.05104 266:0.0316 267:0.01166 268:0.00545 269:0.00084 270:0.00298 272:0.00586 273:0.04153 274:0.08201 275:0.17036 276:0.05158 277:0.00426 278:0.00084 280:0.01565 281:0.02285 282:0.02755 283:0.00534 284:0.02881 285:0.00893 286:0.01823 287:0.00619 288:0.00217 
1 1:0.0425 2:0.01462 3:0.00344 4:0.0038 5:0.00317 6:0.00608 7:0.01252 8:0.01435 9:0.05337 10:0.00803 11:0.01327 12:0.00497 13:0.00341 14:0.0058 15:0.00363 16:0.00577 17:0.01083 18:0.0094 19:0.1549 20:0.05208 21:0.00652 22:0.00105 23:0.00278 24:0.00494 25:0.00456 26:0.04035 27:0.04633 28:0.04641 29:0.00786 30:0.0079 31:0.00249 32:0.00194 33:0.00039 34:0.00137 35:0.10681 36:0.29234 37:0.02967 38:0.0208 39:0.02059 40:0.01077 41:0.00625 42:0.00668 43:0.00373 44:0.00253 45:0.00741 46:0.03587 47:0.02362 48:0.00608 49:0.00637 50:0.0057 51:0.00619 52:0.01088 53:0.0086 54:0.011 55:0.04241 56:0.03825 57:0.02191 58:0.01036 59:0.00655 60:0.00521 61:0.02676 62:0.08138 63:0.18743 64:0.09802 65:0.01368 66:0.00817 67:0.01028 68:0.00949 69:0.0109 70:0.00221 71:0.02154 72:0.18274 73:0.00702 74:0.01364 75:0.01166 76:0.00443 77:0.0035 78:0.00235 79:0.0098 80:0.01033 81:0.00738 82:0.00208 83:0.00674 84:0.00864 85:0.00621 86:0.01646 87:0.0373 88:0.01434 89:0.0048 90:0.00142 91:0.16881 92:0.01342 93:0.00489 94:0.00799 95:0.0123 96:0.00862 97:0.00237 98:0.01465 99:0.19652 100:0.12592 101:0.07186 102:0.04036 103:0.00647 104:0.01182 105:0.00821 106:0.00663 107:0.03651 108:0.09454 109:0.00925 110:0.01527 111:0.01028 112:0.01314 113:0.06243 114:0.04748 115:0.11445 116:0.03048 117:0.00988 118:0.00126 119:0.00328 122:0.00336 123:0.02204 124:0.05358 125:0.04032 126:0.01027 127:0.16489 128:0.10884 129:0.00702 130:0.00625 131:0.00466 132:0.00451 133:0.00626 134:0.00615 135:0.12413 136:0.01445 137:0.03104 138:0.03928 139:0.00451 140:0.00037 141:0.00197 142:0.01004 143:0.01087 144:0.00798 145:0.05772 146:0.00563 147:0.03035 148:0.07061 149:0.04038 150:0.00996 151:0.03623 152:0.08582 153:0.02595 154:0.00476 155:0.00719 156:0.01769 157:0.04012 158:0.01873 159:0.01557 160:0.00837 161:0.0424 162:0.02011 163:0.0078 164:0.02223 165:0.04791 166:0.0463 167:0.03813 168:0.00844 169:0.01141 170:0.00983 171:0.00415 172:0.02683 173:0.03023 174:0.04587 175:0.0356 176:0.02106 177:0.02629 178:0.02348 179:0.01309 180:0.04377 181:0.01599 182:0.01681 183:0.02602 184:0.10152 185:0.08185 186:0.03458 187:0.01255 188:0.0145 189:0.00632 190:0.00483 191:0.00193 192:0.00153 193:0.00463 194:0.03579 195:0.05177 196:0.0384 197:0.04208 198:0.01099 199:0.01505 200:0.02955 201:0.02741 202:0.03918 203:0.04555 204:0.01129 205:0.07766 206:0.08966 207:0.06464 208:0.0093 209:0.00637 210:0.00329 211:0.00059 212:0.00156 213:0.00138 214:0.03259 215:0.02407 216:0.0188 217:0.05321 218:0.03469 219:0.00895 220:0.00576 221:0.01189 222:0.01392 223:0.00921 224:0.02252 225:0.02509 226:0.01602 227:0.07157 228:0.15673 229:0.09893 230:0.01549 233:0.00211 234:0.005 235:0.01612 236:0.02302 237:0.01698 238:0.00294 239:0.00732 240:0.01385 241:0.03059 242:0.02221 243:0.0405 244:0.00396 245:0.01187 246:0.01968 247:0.04002 248:0.07668 249:0.06812 250:0.03524 251:0.00716 252:0.01265 253:0.04497 254:0.05255 255:0.03936 256:0.02221 257:0.00239 260:0.00253 261:0.00687 262:0.18782 263:0.12238 264:0.08171 265:0.0411 266:0.0008 268:0.00169 269:0.00375 270:0.24031 271:0.0003 272:0.01008 273:0.02268 274:0.02075 275:0.01351 276:0.02571 277:0.01518 278:0.00225 280:0.0012 281:0.00224 282:0.00795 283:0.0024 284:0.00957 285:0.0012 286:0.01073 287:0.00338 288:0.0004 
1 1:0.00315 2:0.00662 3:0.02263 4:0.07556 5:0.0242 6:0.01226 7:0.00461 8:0.00206 9:0.00086 10:0.00946 11:0.00888 12:0.04774 13:0.11208 14:0.04863 15:0.00561 16:0.00666 17:0.01844 18:0.01462 19:0.03838 20:0.03445 21:0.0392 22:0.02186 23:0.00251 24:0.00121 25:0.00581 26:0.05246 27:0.05933 28:0.00871 29:0.02761 30:0.00838 31:0.0007 32:0.01551 33:0.00579 34:0.01741 35:0.10958 36:0.12702 37:0.03928 38:0.01216 39:0.03329 40:0.07444 41:0.03378 42:0.03288 43:0.01683 44:0.01191 45:0.02041 46:0.0405 47:0.03002 48:0.04058 49:0.0674 50:0.03881 51:0.02682 52:0.02651 53:0.01918 54:0.0188 55:0.02036 56:0.00613 57:0.00817 58:0.01113 59:0.01561 60:0.0072 61:0.01525 62:0.07819 63:0.09896 64:0.01816 65:0.0044 66:0.00341 67:0.00576 68:0.0139 69:0.00905 70:0.00832 71:0.04969 72:0.04272 73:0.00865 74:0.01809 75:0.07263 76:0.04473 77:0.04304 78:0.03285 79:0.03147 80:0.00271 81:0.00813 82:0.00063 83:0.00238 84:0.01106 85:0.01085 86:0.03566 87:0.04866 88:0.04012 89:0.03309 90:0.01796 91:0.07202 92:0.04662 93:0.01538 94:0.02822 95:0.01828 96:0.02955 97:0.05204 98:0.04752 99:0.03897 100:0.02023 101:0.00707 102:0.00197 103:0.00359 104:0.01141 105:0.03933 106:0.06446 107:0.01987 108:0.02074 109:0.01469 110:0.01991 111:0.02697 112:0.04133 113:0.07597 114:0.10093 115:0.20518 116:0.07651 117:0.08012 118:0.0083 119:0.00543 120:0.00291 121:0.00481 122:0.02109 123:0.01769 124:0.04956 125:0.03385 126:0.03016 127:0.00302 128:0.00223 129:0.01029 130:0.00468 131:0.02997 132:0.02665 133:0.02406 134:0.01038 135:0.01389 136:0.00704 137:0.00352 138:0.00765 139:0.00093 140:0.0037 141:0.00255 142:0.00887 143:0.02022 144:0.00495 145:0.02495 146:0.01253 147:0.00557 148:0.00964 149:0.01728 150:0.02232 151:0.02139 152:0.09301 153:0.07173 154:0.06793 155:0.03475 156:0.01388 157:0.00966 158:0.01567 159:0.0247 160:0.00722 161:0.03103 162:0.0483 163:0.02103 164:0.02726 165:0.02774 166:0.03823 167:0.04068 168:0.01789 169:0.00621 170:0.0079 171:0.00393 172:0.02218 173:0.05133 174:0.04551 175:0.04208 176:0.05083 177:0.02279 178:0.02095 179:0.00796 180:0.01393 181:0.02445 182:0.03278 183:0.04452 184:0.03896 185:0.01655 186:0.01035 187:0.02057 188:0.02926 189:0.02799 190:0.02438 191:0.02747 192:0.01922 193:0.02245 194:0.01527 195:0.01282 196:0.02847 197:0.0237 198:0.01911 199:0.04288 200:0.03012 201:0.0141 202:0.01565 203:0.01537 204:0.05294 205:0.06661 206:0.06185 207:0.02604 208:0.02959 209:0.03331 210:0.03667 211:0.0188 212:0.01191 213:0.01929 214:0.02355 215:0.04047 216:0.02252 217:0.04427 218:0.05943 219:0.04851 220:0.04865 221:0.06096 222:0.04689 223:0.01492 224:0.04037 225:0.01353 226:0.0119 227:0.01042 228:0.00672 229:0.02024 230:0.00961 231:0.01121 232:0.01233 233:0.02268 234:0.00883 235:0.01426 236:0.02081 237:0.07394 238:0.06383 239:0.03413 240:0.04671 241:0.03121 242:0.04189 243:0.00966 244:0.00657 245:0.01001 246:0.02506 247:0.01403 248:0.01809 249:0.04136 250:0.03479 251:0.01094 252:0.01125 253:0.06083 254:0.06127 255:0.09963 256:0.05885 257:0.13364 258:0.0755 259:0.03069 260:0.01476 261:0.02514 262:0.00389 263:0.0101 264:0.01485 266:0.02237 267:0.00318 268:0.05518 269:0.03641 270:0.01791 271:0.00389 272:0.01312 273:0.02779 274:0.00841 275:0.03636 277:0.0326 278:0.0109 279:0.01547 280:0.00324 281:0.02049 282:0.01686 283:0.0042 284:0.00559 285:0.0042 286:0.01097 287:0.0237 288:0.03799 
1 1:0.00456 2:0.00532 3:0.01796 4:0.0887 5:0.05207 6:0.00331 7:0.00293 8:0.00323 9:0.0073 10:0.01216 11:0.01338 12:0.06884 13:0.17772 14:0.04224 15:0.00534 16:0.00122 17:0.00068 18:0.00077 19:0.00338 20:0.00391 21:0.05446 22:0.04277 23:0.00807 24:0.00796 25:0.00681 26:0.06318 27:0.07486 28:0.01808 29:0.00836 30:0.01589 31:0.00656 32:0.01091 33:0.00548 34:0.01426 35:0.08165 36:0.06569 37:0.02484 38:0.0006 39:0.02643 40:0.08927 41:0.05288 42:0.0057 43:0.01077 44:0.01688 45:0.07377 46:0.01724 47:0.0071 48:0.02333 49:0.10974 50:0.08932 51:0.02001 52:0.00939 53:0.01956 54:0.00849 55:0.01129 56:0.00179 57:0.00737 58:0.00652 61:0.0039 62:0.06266 63:0.12243 64:0.00557 65:0.007 66:0.00474 67:0.00823 68:0.00701 69:0.01015 70:0.02438 71:0.06316 72:0.04848 73:0.00118 74:0.00611 75:0.02575 76:0.07905 77:0.10572 78:0.06812 79:0.02717 80:0.01189 81:0.00192 82:0.00134 83:0.0013 84:0.00559 85:0.00052 86:0.02216 87:0.04866 88:0.03558 89:0.01533 90:0.01461 91:0.05041 92:0.0321 93:0.04383 94:0.02877 95:0.04344 96:0.03449 97:0.03226 98:0.04338 99:0.03341 100:0.01275 101:0.00523 102:0.0043 103:0.00312 104:0.01188 105:0.03764 106:0.06787 107:0.02789 108:0.01521 109:0.04112 110:0.03176 111:0.01933 112:0.0573 113:0.08057 114:0.10717 115:0.12402 116:0.0794 117:0.02525 118:0.02065 119:0.01212 120:0.005 121:0.00659 122:0.00796 123:0.04602 124:0.06879 125:0.02719 126:0.01938 127:0.00446 128:0.00925 129:0.01198 130:0.00759 131:0.02244 132:0.02783 133:0.0435 134:0.02504 135:0.01347 136:0.00674 137:0.00896 138:0.00312 139:0.00035 140:0.00468 141:0.00698 142:0.01335 143:0.00978 144:0.00086 145:0.05205 146:0.01117 147:0.00684 148:0.00523 149:0.01025 150:0.00167 151:0.01245 152:0.08771 153:0.23553 154:0.02031 155:0.01399 156:0.00653 157:0.01151 158:0.00924 159:0.01747 160:0.0131 161:0.05188 162:0.12673 163:0.01791 164:0.02859 165:0.03379 166:0.02642 167:0.00757 168:0.0045 169:0.00526 170:0.00124 171:0.00231 172:0.01434 173:0.02933 174:0.04641 175:0.03072 176:0.01628 177:0.01492 178:0.00461 179:0.00736 180:0.01476 181:0.04763 182:0.03877 183:0.0244 184:0.01578 185:0.00651 186:0.0154 187:0.0144 188:0.0404 189:0.07229 190:0.04137 191:0.02593 192:0.0107 193:0.01728 194:0.01932 195:0.02203 196:0.02236 197:0.02208 198:0.04259 199:0.01275 200:0.02117 201:0.00788 202:0.01543 203:0.02089 204:0.03767 205:0.05853 206:0.05162 207:0.05411 208:0.02305 209:0.02955 210:0.03052 211:0.0309 212:0.0051 213:0.00932 214:0.03782 215:0.02711 216:0.02733 217:0.03379 218:0.04538 219:0.03747 220:0.05266 221:0.03723 222:0.03832 223:0.05612 224:0.03466 225:0.01674 226:0.01617 227:0.01464 228:0.01846 229:0.01626 230:0.01747 231:0.01431 232:0.02719 233:0.00862 234:0.00587 235:0.00523 236:0.03992 237:0.04906 238:0.05739 239:0.03697 240:0.05051 241:0.03105 242:0.03464 243:0.01239 244:0.00718 245:0.01558 246:0.03977 247:0.02747 248:0.01772 249:0.02883 250:0.02392 251:0.02036 252:0.01062 253:0.06476 254:0.04229 255:0.05723 256:0.0432 257:0.09959 258:0.07673 259:0.1275 260:0.07786 261:0.0473 262:0.00654 263:0.00551 264:0.01849 265:0.00391 266:0.01822 268:0.03031 269:0.01499 270:0.00624 271:0.01045 272:0.00185 273:0.00551 274:0.00759 275:0.04096 276:0.01908 277:0.02672 278:0.00832 280:0.00101 281:0.01129 282:0.0212 283:0.01149 284:0.03708 286:0.02209 287:0.017 288:0.01768 
1 1:0.00195 2:0.00917 3:0.02811 4:0.02037 5:0.01357 6:0.01008 7:0.00472 8:0.01231 9:0.00822 10:0.01458 11:0.01912 12:0.02508 13:0.01104 14:0.00981 15:0.00825 16:0.01014 17:0.01591 18:0.0071 19:0.09121 20:0.01019 21:0.00785 22:0.00954 23:0.00993 24:0.00539 25:0.00255 26:0.00252 27:0.21106 28:0.17893 29:0.06293 30:0.07684 31:0.02201 32:0.00524 33:0.00352 34:0.0157 35:0.01257 36:0.04249 37:0.00915 38:0.02727 39:0.01505 40:0.00897 41:0.00953 42:0.01226 43:0.01324 44:0.0122 45:0.00717 46:0.00771 47:0.00396 48:0.00094 49:0.00426 50:0.00795 51:0.00825 52:0.01725 53:0.01961 54:0.01961 55:0.05157 56:0.02888 57:0.00934 58:0.01198 59:0.00836 60:0.01071 61:0.06139 62:0.10942 63:0.06118 64:0.0584 65:0.01001 66:0.00961 67:0.00577 68:0.00608 69:0.00623 70:0.01155 71:0.10322 72:0.23191 73:0.01143 74:0.00709 75:0.00262 76:0.00125 77:0.00996 78:0.00673 79:0.01124 80:0.00721 81:0.01908 82:0.00411 83:0.01327 84:0.0111 85:0.00884 86:0.0151 87:0.00624 88:0.0044 89:0.00609 90:0.00597 91:0.11824 92:0.05945 93:0.03759 94:0.01617 95:0.0105 96:0.01238 97:0.01855 98:0.08952 99:0.09018 100:0.18884 101:0.00393 102:0.00705 103:0.00902 104:0.00464 105:0.00575 106:0.00423 107:0.01507 108:0.15716 109:0.00349 110:0.00661 111:0.00859 112:0.02738 113:0.01924 114:0.00837 115:0.01239 116:0.00609 117:0.00059 118:0.01418 119:0.0115 120:0.00848 121:0.00553 122:0.00203 123:0.00261 124:0.00295 125:0.00618 126:0.00574 127:0.25214 128:0.02997 129:0.00924 130:0.01362 131:0.01472 132:0.00533 133:0.00608 134:0.01065 135:0.07447 136:0.17738 137:0.14433 138:0.0669 139:0.00853 140:0.00735 141:0.00479 142:0.00797 143:0.00271 144:0.01185 145:0.00175 146:0.00079 147:0.00204 148:0.02069 149:0.02373 150:0.0021 151:0.00053 152:0.00066 153:0.00387 154:0.00021 155:0.03099 156:0.06786 157:0.21877 158:0.13307 159:0.01876 160:0.00265 161:0.00066 162:0.00773 163:0.01778 164:0.01785 165:0.02036 166:0.006 167:0.00471 168:0.00953 169:0.01915 170:0.01675 171:0.05569 172:0.04224 173:0.03288 174:0.02638 175:0.01345 176:0.02457 177:0.016 178:0.02782 179:0.05778 180:0.05418 181:0.03846 182:0.03732 183:0.04686 184:0.07058 185:0.04541 186:0.03134 187:0.00277 188:0.00361 189:0.01581 190:0.00493 191:0.00518 192:0.01285 193:0.02045 194:0.01285 195:0.00168 196:0.0012 197:0.00229 198:0.00042 199:0.03239 200:0.04764 201:0.02642 202:0.03636 203:0.03789 204:0.0107 205:0.00193 206:0.04103 207:0.10715 208:0.0456 209:0.04586 210:0.06346 211:0.03311 212:0.01414 213:0.01621 214:0.01417 215:0.03492 216:0.03702 217:0.01476 218:0.02361 219:0.0047 220:0.03886 221:0.0248 222:0.04772 223:0.03672 224:0.02153 225:0.02083 226:0.00527 227:0.00394 228:0.00579 229:0.01218 230:0.01249 231:0.00526 232:0.00181 233:0.00143 234:0.00015 235:0.09816 236:0.01602 237:0.00298 238:0.02214 239:0.01106 240:0.01913 241:0.03987 242:0.03413 243:0.17619 244:0.13336 245:0.02193 246:0.00817 247:0.00358 248:0.00257 249:0.00045 250:0.0039 251:0.01082 252:0.11371 253:0.00574 254:0.01741 255:0.02359 256:0.04663 257:0.03861 258:0.01036 259:0.00258 260:0.00063 261:0.00034 262:0.01238 263:0.02914 264:0.03912 265:0.02764 266:0.03713 267:0.03455 268:0.01047 269:0.00799 270:0.02382 271:0.06515 272:0.035 273:0.01309 274:0.00315 275:0.00391 276:0.00127 277:0.00191 278:0.04867 279:0.10103 280:0.03562 281:0.00348 282:0.00218 283:0.00109 284:0.00672 285:0.01115 286:0.01809 287:0.09559 288:0.18478 
1 1:0.0011 2:0.00366 3:0.00394 4:0.01229 5:0.02684 6:0.01262 7:0.00371 8:0.00106 9:0.00062 11:0.01389 12:0.03291 13:0.08728 14:0.20001 15:0.1238 16:0.01414 18:0.00226 19:0.00025 20:0.00202 21:0.0025 22:0.0084 23:0.0113 24:0.01532 25:0.01573 26:0.00497 27:0.00038 28:0.00629 29:0.023 30:0.07791 31:0.22427 32:0.0635 33:0.0033 34:0.00059 35:0.00012 37:0.00635 38:0.01089 39:0.03485 40:0.0654 41:0.08231 42:0.01498 43:0.0099 44:0.0129 45:0.00683 46:0.00382 47:0.00864 48:0.0222 49:0.0407 50:0.02356 51:0.01036 52:0.02265 53:0.05961 54:0.02329 55:0.02902 56:0.07048 57:0.05141 58:0.0245 59:0.00807 60:0.0155 61:0.00927 62:0.05488 63:0.04005 64:0.05793 65:0.02022 66:0.00583 67:0.00357 68:0.00664 69:0.0053 70:0.00929 71:0.06906 72:0.05974 73:0.05403 74:0.03153 75:0.00825 76:0.00765 77:0.01174 78:0.00454 79:0.00167 80:0.00663 81:0.02707 82:0.01357 83:0.02841 84:0.03064 85:0.01816 86:0.02544 87:0.0122 88:0.01182 89:0.01234 90:0.00953 91:0.11993 92:0.02223 93:0.00663 94:0.00317 95:0.00473 96:0.0005 97:0.01242 98:0.02383 99:0.13292 100:0.0985 101:0.07483 102:0.01848 103:0.00443 104:0.00824 105:0.00763 106:0.016 107:0.04725 108:0.08304 109:0.00251 110:0.01198 111:0.04933 112:0.13473 113:0.06309 114:0.02817 115:0.01227 116:0.0124 117:0.00731 118:0.02954 119:0.02715 120:0.01562 121:0.01803 122:0.0149 123:0.01046 124:0.0185 125:0.02702 126:0.02427 127:0.00267 128:0.0333 129:0.02434 130:0.04871 131:0.06649 132:0.04943 133:0.03456 134:0.07946 135:0.01244 136:0.01179 137:0.02868 138:0.03389 139:0.02357 140:0.02177 141:0.00512 142:0.00357 143:0.0035 144:0.00943 145:0.00305 146:0.00853 147:0.01765 148:0.00951 149:0.02015 150:0.0022 151:0.00341 152:0.00214 153:0.00323 154:0.02181 155:0.06259 156:0.07008 157:0.02836 158:0.01152 161:0.00061 162:0.00424 163:0.07336 164:0.01819 166:0.00212 167:0.00253 168:0.00212 169:0.00273 170:0.03717 171:0.14217 172:0.0476 173:0.05437 174:0.05879 175:0.04321 176:0.05606 177:0.02945 178:0.04706 179:0.03934 180:0.07462 181:0.14362 182:0.07899 183:0.03789 184:0.0019 185:7e-005 187:0.00102 188:0.01134 189:0.0258 190:0.1241 191:0.04855 192:0.03075 193:0.01602 194:0.00271 195:0.00425 196:0.00239 197:0.02225 198:0.09756 199:0.01659 200:0.01503 201:0.01302 202:0.01289 203:0.00778 204:0.01077 205:0.0125 206:0.01897 207:0.02205 208:0.02717 209:0.03066 210:0.02651 211:0.02511 212:0.01383 213:0.03195 214:0.03163 215:0.01641 216:0.01792 217:0.08126 218:0.00135 223:0.0211 224:0.0863 225:0.19359 226:0.11615 227:0.07594 228:0.03335 229:0.009 230:0.00426 231:0.00521 232:0.00463 233:0.0448 234:0.08375 235:0.01867 236:0.02692 237:0.01579 238:0.00575 239:0.0067 240:0.00867 241:0.01211 242:0.01306 243:0.01442 244:0.01854 245:0.0116 246:0.01341 247:0.00996 248:0.01469 249:0.02348 250:0.00775 251:0.00399 252:0.01379 253:0.03782 254:0.12942 255:0.00876 256:0.00107 257:0.00222 258:0.00398 259:0.00975 260:0.02052 261:0.01501 262:0.00448 263:0.0143 264:0.01703 265:0.01214 266:0.01754 267:0.01586 268:0.00376 269:0.02133 270:0.0388 271:0.01439 272:0.0887 273:0.06517 274:0.0178 275:0.01909 276:0.00783 277:0.00848 278:0.01123 279:0.01035 280:0.02407 281:0.04706 282:0.11763 283:0.07319 284:0.05992 285:0.03261 286:0.01031 287:0.01084 288:0.00755 
1 1:0.03353 2:0.01245 3:0.00891 4:0.00403 5:0.00276 6:0.0025 7:0.00747 8:0.01346 9:0.02063 10:0.03506 11:0.00974 12:0.00435 13:0.0082 14:0.00419 15:0.0065 16:0.00674 17:0.01116 18:0.01793 19:0.01886 20:0.01626 21:0.01234 22:0.00288 23:0.00762 24:0.06083 25:0.03583 26:0.05521 27:0.07357 28:0.06603 29:0.0702 30:0.03846 31:0.02298 32:0.03831 33:0.02337 34:0.02836 35:0.09052 36:0.12876 37:0.03529 38:0.05629 39:0.01789 40:0.01325 41:0.0146 42:0.00627 43:0.00958 44:0.0195 45:0.01915 46:0.04706 47:0.02951 48:0.0174 49:0.0095 50:0.00678 51:0.007 52:0.00408 53:0.01883 54:0.01384 55:0.10918 56:0.0094 57:0.00465 58:0.02294 59:0.01317 60:0.01871 61:0.01316 62:0.01203 63:0.08155 64:0.1185 65:0.02854 66:0.02956 67:0.02146 68:0.01376 69:0.01275 70:0.02058 71:0.04575 72:0.0785 73:0.02485 74:0.07774 75:0.07818 76:0.01338 77:0.00533 78:0.00589 79:0.01122 80:0.01258 81:0.01573 82:0.00577 83:0.00635 84:0.0024 85:0.00061 86:0.00295 87:0.00305 88:0.01505 89:0.01479 90:0.00687 91:0.24078 92:0.15847 93:0.02538 94:0.02197 95:0.01814 96:0.02104 97:0.01448 98:0.03001 99:0.03187 100:0.00319 101:0.00542 102:0.00697 103:0.01228 104:0.02931 105:0.03495 106:0.02492 107:0.01113 108:0.00694 109:0.00304 110:0.00515 111:0.01636 112:0.017 113:0.02042 114:0.02676 115:0.03381 116:0.04363 117:0.0277 118:0.04372 119:0.03645 120:0.01361 121:0.00582 122:0.02607 123:0.00677 124:0.02238 125:0.05142 126:0.07717 127:0.02722 128:0.00945 129:0.00088 132:0.01791 133:0.09965 134:0.1166 135:0.04238 136:0.02177 137:0.02723 138:0.02658 139:0.00899 140:0.01509 141:0.01182 142:0.02622 143:0.04405 144:0.02691 145:0.00653 146:0.01139 147:0.02853 148:0.05994 149:0.04613 150:0.02133 151:0.02682 152:0.03196 153:0.00829 154:0.00529 155:0.00635 156:0.0215 157:0.04447 158:0.01463 159:0.01367 160:0.02272 161:0.02917 162:0.03432 163:0.06648 164:0.06334 165:0.03797 166:0.02812 167:0.00365 168:0.00544 169:0.01282 170:0.02075 171:0.01665 172:0.09029 173:0.04153 174:0.0114 175:0.00287 176:0.00201 177:0.0055 178:0.00349 179:0.00906 180:0.14562 181:0.03343 182:0.02459 183:0.01804 184:0.00564 185:0.01978 186:0.03151 187:0.0154 188:0.03237 189:0.03552 190:0.02721 191:0.01394 192:0.00118 193:0.00337 194:0.00981 195:0.00776 196:0.01402 197:0.02605 198:0.03629 199:0.1619 200:0.02149 201:0.0033 202:0.00615 203:0.01089 204:0.00857 205:0.00739 206:0.01048 207:0.08157 208:0.12514 209:0.01817 210:0.014 211:0.00205 212:0.00059 213:0.00119 214:0.00374 215:0.03587 216:0.13162 217:0.0186 218:0.02395 219:0.03786 220:0.07441 221:0.03986 222:0.0012 223:0.00102 224:0.00259 225:0.0023 226:0.00669 227:0.0178 228:0.01358 229:0.10403 230:0.07679 231:0.00935 232:0.01035 233:0.00642 234:0.00542 235:0.0713 236:0.01644 237:0.00413 238:0.00031 239:0.00237 240:0.00999 241:0.04956 242:0.0708 243:0.17072 244:0.00098 245:0.00833 246:0.01043 247:0.01624 248:0.01178 249:0.02929 250:0.05406 251:0.01727 252:0.00378 253:0.04826 254:0.02773 255:0.02207 256:0.02131 257:0.01706 258:0.00901 259:0.02226 260:0.04968 261:0.08888 262:0.06127 263:0.09918 264:0.09242 265:0.01339 266:0.00671 267:0.00901 268:0.01731 269:0.0287 270:0.02942 271:0.00037 272:0.0018 273:0.00143 274:0.01986 275:0.06788 276:0.03048 277:0.02659 278:0.00842 279:0.00075 280:0.0565 281:0.073 282:0.02592 283:0.00146 284:0.00485 286:0.00411 287:0.00497 288:0.00793 
1 1:0.03249 2:0.01007 3:0.0129 4:0.06797 5:0.08867 6:0.01979 7:0.04192 8:0.02897 9:0.06451 10:0.08639 11:0.02526 12:0.00346 13:0.00121 14:0.00226 15:0.00477 16:0.01902 17:0.03793 18:0.06857 19:0.00222 20:0.01421 21:0.057 22:0.1271 23:0.07774 24:0.05483 25:0.0058 26:0.00286 27:0.00083 28:0.00315 29:0.00491 30:0.0051 31:0.00239 32:0.00659 33:0.0102 34:0.00663 35:0.00147 36:0.00083 37:0.1389 38:0.03993 39:0.0211 40:0.00894 41:0.00496 42:0.00344 43:0.02446 44:0.05096 45:0.14959 46:0.10281 47:0.02192 48:0.00307 49:0.01072 50:0.00016 51:0.0035 52:0.00582 53:0.05002 54:0.17154 55:0.01928 56:0.00971 57:0.0063 58:0.0048 59:0.00713 60:0.00257 61:0.00798 62:0.01899 63:0.01395 64:0.01147 65:0.00828 66:0.0057 67:0.00351 68:0.00435 69:0.00187 70:0.0077 71:0.03883 72:0.01577 73:0.09989 74:0.02647 75:0.01236 76:0.00199 77:0.00336 78:0.00657 79:0.01188 80:0.02264 81:0.07566 82:0.06209 83:0.02617 84:0.01199 85:0.00068 86:0.0027 87:0.00067 88:0.00502 89:0.06205 90:0.09732 91:0.01511 92:0.0176 93:0.01844 94:0.01562 95:0.01668 96:0.00644 97:0.03204 98:0.01986 99:0.00825 100:0.11486 101:0.05207 102:0.01111 103:0.00906 104:0.00607 105:0.00998 106:0.00612 107:0.05381 108:0.05736 109:0.06606 110:0.01991 111:0.00738 112:0.00999 113:0.01545 114:0.00614 115:0.00873 116:0.02755 117:0.03492 118:0.03603 119:0.03459 120:0.03955 121:0.01123 122:0.00491 123:0.01526 124:0.01283 125:0.02785 126:0.04055 127:0.03975 128:0.01408 129:0.00751 130:0.01429 131:0.01886 132:0.01926 133:0.005 134:0.00642 135:0.00932 136:0.00318 137:0.00174 138:0.00322 139:0.03682 140:0.16028 141:0.15722 142:0.06476 143:0.00806 144:0.01128 145:0.00261 146:0.02375 147:0.04566 148:0.04417 149:0.0419 150:0.01774 151:0.00471 152:0.00473 153:0.00141 154:0.00383 155:0.00144 156:0.01089 157:0.02231 158:0.08633 159:0.08472 160:0.05184 161:0.06543 162:0.04331 163:0.00387 164:0.00649 165:0.01055 166:0.02512 167:0.02694 168:0.02187 169:0.01244 170:0.0072 171:0.00272 172:0.00817 173:0.04 174:0.06402 175:0.09495 176:0.06151 177:0.02162 178:0.01418 179:0.01369 180:0.00788 181:0.04622 182:0.02154 183:0.00849 184:0.02972 185:0.05459 186:0.02433 187:0.00135 188:0.02243 189:0.04905 190:0.02291 191:0.01519 192:0.01566 193:0.05584 194:0.02395 195:0.01373 196:0.0051 197:0.0078 198:0.0131 199:0.06057 200:0.03833 201:0.03445 202:0.04353 203:0.03329 204:0.02006 205:0.01031 206:0.01838 207:0.03157 208:0.03135 209:0.02159 210:0.00533 211:0.02734 212:0.0246 213:0.00956 214:0.01148 215:0.0614 216:0.08585 217:0.00904 218:0.00904 219:0.0041 220:0.08596 221:0.04378 222:0.02061 223:0.01754 224:0.02663 225:0.02434 226:0.03497 227:0.02878 228:0.0717 229:0.08716 230:0.0359 231:0.00172 232:0.01394 233:0.00433 235:0.05564 236:0.01133 237:0.01574 238:0.01502 239:0.00161 240:0.00454 241:0.00695 242:0.02236 243:0.14663 244:0.02968 245:0.02108 246:0.01592 247:0.03017 248:0.02646 249:0.01539 250:0.01627 251:0.02502 252:0.02064 253:0.00796 254:0.02507 255:0.0455 256:0.10332 257:0.04912 258:0.00379 259:0.00187 260:0.00495 261:0.00276 262:0.00582 263:0.03542 264:0.04643 265:0.06961 266:0.03601 267:0.00276 268:0.00057 269:0.00045 270:0.00061 271:0.05771 272:0.01295 273:0.0111 274:0.02731 275:0.08441 276:0.05156 277:0.01645 278:0.0271 279:0.0457 280:0.01346 281:0.02613 282:0.00615 283:0.00559 284:0.03487 285:0.04826 286:0.04518 287:0.03086 288:0.01318 
1 1:0.00401 2:0.00542 3:0.02705 4:0.06506 5:0.07827 6:0.05369 7:0.02056 8:0.05874 9:0.03082 10:0.00509 11:0.00245 12:0.00238 13:0.00192 14:0.00116 15:0.00336 16:0.00497 17:0.01638 18:0.03067 19:0.02123 20:0.04005 21:0.09508 22:0.0859 23:0.02673 24:0.02298 25:0.0085 26:0.01053 27:0.01591 28:0.03685 29:0.02162 30:0.00894 31:0.00566 32:0.00384 33:0.00245 34:0.00559 35:0.02347 36:0.15268 37:0.01512 38:0.01096 39:0.00901 40:0.01907 41:0.00263 42:0.00237 43:0.00227 44:0.00215 45:0.01011 46:0.01185 47:0.03104 48:0.07887 49:0.1286 50:0.0399 51:0.00326 52:0.00317 53:0.00171 54:0.00465 55:0.03915 56:0.00277 57:0.00171 58:0.00046 59:0.00172 60:0.00268 61:0.00417 62:0.0246 63:0.24464 64:0.07104 65:0.01494 66:0.01113 67:0.02589 68:0.01236 69:0.00798 70:0.0069 71:0.02941 72:0.12171 73:0.0127 74:0.00644 75:0.09035 76:0.12999 77:0.03536 78:0.01496 79:0.00159 80:0.00573 81:0.00573 82:0.0081 83:0.01563 84:0.02494 85:0.03171 86:0.02908 87:0.01349 88:0.01991 89:0.0198 90:0.00996 91:0.07301 92:0.03045 93:0.01782 94:0.02774 95:0.04858 96:0.02755 97:0.02277 98:0.01752 99:0.03799 100:0.0189 101:0.01083 102:0.03265 103:0.02133 104:0.03389 105:0.03609 106:0.04292 107:0.01229 108:0.0122 109:0.00064 110:0.02511 111:0.07092 112:0.10009 113:0.07859 114:0.01693 115:0.00314 116:0.00259 117:0.00297 118:0.00714 119:0.01447 120:0.00763 121:0.00071 122:0.00656 124:0.00065 125:0.00174 126:0.00588 127:0.02985 128:0.06083 129:0.09472 130:0.02655 131:0.0206 132:0.00423 133:0.00151 134:0.00148 135:0.01027 136:0.04508 137:0.03391 138:0.02297 139:0.01214 140:0.00239 142:0.00239 143:0.07467 144:0.21067 145:0.04494 146:0.08165 147:0.02509 148:0.00715 149:0.00018 150:0.00439 151:0.02466 152:0.04215 153:0.05666 154:0.02753 155:0.01098 156:0.00523 157:0.00599 158:0.00446 159:0.00686 160:0.0142 161:0.07723 162:0.11482 163:0.00463 164:0.00676 165:0.01442 166:0.01039 167:0.05308 168:0.04479 169:0.02626 170:0.01082 171:0.00645 172:0.0085 173:0.0179 174:0.0021 175:0.00935 176:0.03232 177:0.03484 178:0.03634 179:0.07248 180:0.0544 181:0.02802 182:0.00474 183:0.00077 184:0.00048 185:0.00534 186:0.00173 187:0.003 188:0.02913 189:0.09126 190:0.03103 191:0.01379 192:0.00468 193:0.00465 194:0.00141 195:0.00159 196:0.00303 197:0.04255 198:0.11264 199:0.01137 200:0.01447 201:0.00333 202:0.04005 203:0.10219 204:0.0581 205:0.0294 206:0.04449 207:0.03641 208:0.01706 209:0.02742 210:0.02524 211:0.06849 212:0.07777 213:0.02456 214:0.00992 215:0.01446 216:0.01543 217:0.01386 218:0.0056 219:0.00958 220:0.0025 221:0.00139 222:0.00307 223:0.04558 224:0.11205 225:0.08802 226:0.02651 227:0.01016 228:0.00505 229:0.00389 230:0.00495 231:0.00968 232:0.08849 233:0.03615 234:0.01493 235:0.03292 236:0.01446 237:0.02048 238:0.1049 239:0.10807 240:0.01032 241:0.02616 242:0.02686 243:0.02456 244:0.04009 245:0.01882 246:0.02317 247:0.01531 248:0.0082 249:0.00257 250:0.00997 251:0.01012 252:0.02157 253:0.08963 254:0.03411 255:0.0061 256:0.00149 257:0.00023 258:0.00577 259:0.01833 260:0.01614 261:0.03528 262:0.05442 263:0.03898 264:0.00459 265:0.00027 266:0.00024 267:0.00144 268:0.00504 269:0.02306 270:0.04574 271:0.13595 272:0.08655 273:0.02178 274:0.05677 275:0.02183 276:0.00855 277:0.00162 278:0.00031 279:0.02254 280:0.03047 281:0.03425 282:0.0189 283:0.06151 284:0.07415 285:0.02158 286:0.00742 287:0.00102 288:0.01392 
1 1:0.01226 2:0.01807 3:0.02072 4:0.03441 5:0.01352 6:0.04533 7:0.04496 8:0.07419 9:0.04779 10:0.03942 11:0.01517 12:0.02006 13:0.05708 14:0.05568 15:0.0458 16:0.02503 17:0.01223 18:0.01354 19:0.00331 20:0.01287 21:0.01663 22:0.03717 23:0.04088 24:0.03184 25:0.0305 26:0.03481 27:0.00911 28:0.00026 29:0.00269 30:0.02585 31:0.07079 32:0.0313 33:0.01787 34:0.0239 35:0.00913 36:0.00584 37:0.01329 38:0.01201 39:0.01024 40:0.00447 41:0.00418 42:0.00191 43:0.00786 44:0.01841 45:0.02242 46:0.01435 47:0.01859 48:0.01055 49:0.00444 50:0.00312 51:0.01138 52:0.01522 53:0.02174 54:0.07943 55:0.00281 56:0.00608 57:0.00821 58:0.02492 59:0.03291 60:0.01586 61:0.00078 62:0.00175 63:0.00738 64:0.00578 65:0.00122 66:0.00604 67:0.03756 68:0.02419 69:0.08266 70:0.15724 71:0.20329 72:0.10773 73:0.04762 74:0.00797 75:0.00388 76:0.00058 77:0.00143 79:0.0011 80:0.02718 81:0.14455 82:0.04348 83:0.02726 84:0.00277 85:0.00023 86:0.0034 87:0.0014 88:0.00778 89:0.06287 90:0.09844 91:0.0336 92:0.00703 93:0.01449 94:0.033 95:0.03266 96:0.00543 97:0.00345 98:0.02022 99:0.14059 100:0.0189 101:0.01261 102:0.00673 103:0.03524 104:0.03635 105:0.01921 106:0.01448 107:0.03781 108:0.04626 109:0.10046 110:0.00991 111:0.00415 112:0.00394 113:0.00293 114:0.00497 115:0.01273 116:0.01058 117:0.18643 118:0.10194 119:0.00892 120:0.01407 121:0.01442 122:0.01038 123:0.00376 124:0.00527 125:0.00124 126:0.1856 127:0.04354 128:0.00106 129:0.00029 130:0.01357 131:0.01865 132:0.00318 133:0.00422 134:0.00864 135:0.06657 136:0.02513 137:0.00681 138:0.00924 139:0.02242 140:0.02073 141:0.00158 142:0.00256 143:0.00621 144:0.0639 145:0.01195 146:0.02265 147:0.04765 148:0.02436 149:0.02077 150:0.05217 151:0.02656 152:0.02629 153:0.01636 154:0.00118 155:0.01287 156:0.12007 157:0.07588 158:0.02848 159:0.00386 161:0.00022 162:0.00351 163:0.01047 164:0.00995 165:0.01492 166:0.02239 167:0.07145 168:0.0548 169:0.03848 170:0.02643 171:0.00957 172:0.00466 173:0.01367 174:0.09143 175:0.03549 176:0.0133 177:0.0484 178:0.02901 179:0.00805 180:0.00271 181:0.00037 182:0.00125 183:0.0028 184:0.01488 185:0.01918 186:0.00364 187:0.00055 188:0.00014 190:0.077 191:0.05877 192:0.13317 193:0.09335 194:0.0752 195:0.09246 196:0.04555 197:0.03008 198:0.03861 199:0.0041 200:0.0084 201:0.01667 202:0.00273 203:0.00476 204:0.00426 205:0.00642 206:0.00704 207:0.00495 208:0.03895 209:0.04953 210:0.01728 211:0.02347 212:0.01746 213:0.0028 214:0.00422 215:0.05165 216:0.04834 217:0.0031 218:0.00717 219:0.01965 220:0.04865 221:0.03508 222:0.03351 223:0.00749 224:0.00133 225:0.00058 226:0.01314 227:0.0265 228:0.02291 229:0.02935 230:0.04521 231:0.02122 232:0.03551 233:0.02839 234:0.0195 235:0.08484 236:0.03962 237:0.00155 238:0.0016 239:0.00255 240:0.00545 241:0.01225 242:0.04308 243:0.14498 244:0.04431 245:0.00925 248:0.00261 249:0.00217 250:0.00232 251:0.01042 252:0.19474 253:0.02099 254:0.01263 255:0.01427 256:0.01566 257:0.03492 258:0.02437 259:0.0361 260:0.01531 261:0.03335 262:0.01114 263:0.00843 264:0.00505 265:0.00655 266:0.00624 267:0.0037 268:0.0026 269:0.00302 270:0.01431 271:0.14478 272:0.01266 273:0.00271 274:0.0003 275:0.00133 276:6e-005 277:0.00738 278:0.01427 279:0.16527 280:0.09769 281:0.03967 282:0.00387 283:0.0007 285:0.0008 286:0.00095 287:0.02256 288:0.21634 
1 1:0.00314 2:0.01106 3:0.01233 4:0.01056 5:0.0094 6:0.00499 7:0.0021 8:0.00189 9:0.00375 10:0.01618 11:0.03835 12:0.03935 13:0.06182 14:0.06901 15:0.01258 16:0.00032 17:0.00336 18:0.01152 19:0.00239 20:0.00468 21:0.00119 22:0.01892 23:0.07306 24:0.05181 25:0.03029 26:0.03205 27:0.02773 28:0.03652 29:0.02499 30:0.01549 31:0.10947 32:0.0792 33:0.05479 34:0.02897 35:0.04501 36:0.05173 37:0.07969 38:0.03372 39:0.03172 40:0.06609 41:0.03605 42:0.00594 43:0.00982 44:0.00742 45:0.10007 46:0.13699 47:0.00833 48:0.00679 49:0.00115 50:0.00076 51:0.0023 52:0.00613 53:0.00939 54:0.12706 55:0.02753 56:0.04228 57:0.01924 58:0.03694 59:0.0348 60:0.01116 61:0.02394 62:0.01876 63:0.02096 64:0.00322 65:0.00607 66:0.00964 67:0.0097 68:0.02168 69:0.0092 70:0.01285 71:0.01805 72:0.00455 73:0.15068 74:0.00638 75:0.00058 76:0.00073 77:0.00387 78:0.00383 79:0.00373 80:0.05634 81:0.15278 82:0.20335 83:0.09558 84:0.03639 85:0.00712 86:0.00353 87:0.0015 88:0.01816 89:0.00821 90:0.05713 91:0.00514 92:0.00526 93:0.00734 94:0.00263 95:0.00521 96:0.00029 97:0.00292 98:0.00712 99:0.00311 100:0.01194 101:0.02498 102:0.04136 103:0.02696 104:0.01319 105:0.01017 106:0.00747 107:0.01054 108:0.0045 109:0.15823 110:0.16782 111:0.01354 112:0.001 113:0.00306 114:0.00238 115:0.0035 116:0.00607 117:0.00869 118:0.05272 119:0.02973 120:0.00429 121:0.00034 122:0.00074 123:0.00067 124:0.00266 125:0.00379 126:0.0089 127:0.02727 128:0.07495 129:0.01478 130:0.01003 131:0.00419 132:0.001 133:0.00114 134:0.00227 135:0.0023 136:0.05397 137:0.06093 138:0.09978 139:0.14687 140:0.02901 141:0.00065 142:0.00048 143:0.00047 144:0.00177 145:0.02258 146:0.01711 147:0.03636 148:0.05903 149:0.04277 150:0.0177 151:0.01496 152:0.00889 153:0.00946 154:0.06782 155:0.03513 156:0.04688 157:0.09205 158:0.14342 159:0.06766 160:0.05964 161:0.05065 162:0.03885 163:0.00131 164:0.00093 165:0.00374 166:0.00575 167:0.01316 168:0.03012 169:0.02645 170:0.00529 171:0.0012 172:0.00736 173:0.00947 174:0.00166 175:0.00197 176:0.0111 177:0.01674 178:0.0067 179:0.0061 180:0.01999 181:0.03353 182:0.02918 183:0.02026 184:0.00905 185:0.00507 186:0.00345 187:0.01012 188:0.05732 189:0.0492 190:0.04571 191:0.03932 192:0.01942 193:0.00921 194:0.00522 195:0.0056 196:0.024 197:0.04143 198:0.0615 199:0.01669 200:0.00208 202:0.01351 203:0.03605 204:0.02452 205:0.0532 206:0.05808 207:0.07938 208:0.05378 209:0.00916 210:0.00248 212:0.0039 213:0.00235 214:0.00415 215:0.03395 216:0.13814 217:0.0143 218:0.00806 219:0.00666 220:0.01107 221:0.00559 222:0.0128 223:0.00458 224:0.03359 225:0.02755 226:0.03151 227:0.01199 228:0.01321 229:0.01068 230:0.00572 231:0.01336 232:0.00876 233:0.03676 234:0.15134 235:0.01315 236:0.00077 237:0.00223 238:0.04105 239:0.13737 240:0.07125 241:0.04184 242:0.03182 243:0.01901 244:0.06585 245:0.01173 246:0.00865 247:0.01667 248:0.01605 249:0.01706 250:0.00712 251:0.02343 252:0.06742 253:0.0426 254:0.01934 255:0.01354 256:0.00306 257:0.00628 258:0.024 259:0.03173 260:0.04254 261:0.13137 262:0.00241 263:0.00165 264:0.00318 265:0.04669 266:0.03914 267:0.04239 268:0.05983 269:0.12336 270:0.11827 271:0.04761 272:0.0059 273:0.0026 274:0.00154 275:0.00126 276:0.00206 277:0.00243 278:0.009 279:0.0958 280:0.02418 281:0.0076 282:0.00315 283:0.00219 284:0.00349 285:0.00352 286:0.00313 287:0.00549 288:0.02768 
0.04873332939856659 1:0.0124 2:0.03793 3:0.06547 4:0.02611 5:0.00904 6:0.00543 7:0.04318 8:0.00587 9:0.01477 10:0.01736 11:0.04634 12:0.00535 14:0.00627 15:0.0152 16:0.05092 17:0.02842 18:0.03323 19:0.02397 20:0.04692 21:0.01842 22:0.02839 23:0.01285 24:0.00778 25:0.02917 26:0.02388 27:0.01225 28:0.00069 29:0.01626 30:0.0135 31:0.07371 32:0.15765 33:0.04514 34:0.04561 35:0.01785 36:0.00266 37:0.00239 38:0.01553 39:0.01713 40:0.00601 41:0.00077 42:0.0039 43:0.02178 44:0.04572 45:0.06294 46:0.01327 47:0.00272 48:0.00531 49:0.01874 50:0.04139 51:0.01166 52:0.03309 53:0.03037 54:0.13258 55:0.00797 56:0.02529 57:0.03488 58:0.02439 59:0.02015 60:0.01844 61:0.00578 62:0.01199 63:0.00416 67:0.13642 68:0.16765 69:0.03417 70:0.00991 71:0.02123 72:0.01226 73:0.02345 74:0.00636 75:0.04237 76:0.0099 77:0.02059 78:0.00515 79:0.00921 80:0.01795 81:0.10324 82:0.04176 83:0.03949 84:0.07842 85:0.04495 86:0.01172 87:0.00589 88:0.00017 89:0.00656 90:0.01236 91:0.01798 92:0.00358 93:0.00509 94:0.00442 96:0.00051 97:0.0124 98:0.03137 99:0.0311 100:0.00637 101:0.02824 102:0.1066 103:0.21853 104:0.03099 105:0.00348 106:0.01394 107:0.00388 108:0.00198 109:0.00951 110:0.02369 111:0.01433 112:0.03286 113:0.02888 114:0.01375 115:0.00782 116:0.01079 117:0.0049 118:0.01274 119:0.07594 120:0.06568 121:0.03823 122:0.00436 123:0.00199 124:0.00551 125:0.00175 126:0.00131 127:0.03126 128:0.05561 129:0.03427 130:0.08175 131:0.12399 132:0.05932 133:0.02077 134:0.00662 135:0.01314 136:0.05502 137:0.04638 138:0.02116 139:0.04716 140:0.01676 141:0.00312 142:0.00665 143:0.01117 144:0.0118 145:0.09777 146:0.10387 147:0.16014 148:0.02113 149:0.02425 150:0.0043 151:0.00549 152:0.0155 153:0.0725 154:0.01066 155:0.0292 156:0.09581 157:0.1029 158:0.04454 159:0.01302 163:0.00788 164:0.00394 165:0.01594 166:0.00723 167:0.03318 168:0.01808 169:0.0133 170:0.00874 172:0.00925 173:0.01798 174:0.02808 175:0.02432 176:0.00308 177:0.00207 178:0.00197 179:0.00093 180:0.00295 181:0.0018 182:0.00776 183:0.07637 184:0.03775 185:0.01895 186:0.04903 187:0.04434 188:0.03679 189:0.02138 190:0.08529 191:0.02004 192:0.00014 193:0.03051 194:0.04965 195:0.05343 196:0.06592 197:0.03414 198:0.08605 199:0.01544 200:0.01155 201:0.02229 202:0.01563 203:0.00394 204:0.00299 205:0.00301 206:0.01778 207:0.03692 208:0.07702 209:0.06003 210:0.00578 211:0.00012 212:0.0014 213:0.00022 214:0.00185 215:0.00273 216:0.00195 217:0.06846 218:0.02824 219:0.00438 220:0.00233 221:0.01814 222:0.00953 223:0.00776 224:0.01513 225:0.11501 226:0.11413 227:0.04505 228:0.04496 229:0.02332 230:0.03354 231:0.01679 232:0.02436 233:0.00254 234:0.06475 235:0.06869 236:0.06349 237:0.00205 238:0.0029 239:0.00128 240:0.00566 241:0.00421 242:0.00338 243:0.00658 244:0.01434 245:0.05741 246:0.02288 247:0.0326 248:0.02316 249:0.00079 250:0.01331 251:0.02593 252:0.01294 253:0.02353 254:0.01319 255:0.07251 256:0.09612 257:0.0357 258:0.06216 259:0.11451 260:0.03461 261:0.01785 262:0.04908 263:0.08207 264:0.06018 265:0.0265 266:0.01175 267:0.00555 268:0.00062 269:0.00452 270:0.01507 271:0.01751 272:0.01071 273:0.01103 274:0.00926 275:0.00709 276:0.00834 277:0.02372 278:0.02048 279:0.01078 280:0.04883 281:0.02796 282:0.01764 283:0.02208 284:0.00512 285:0.00334 286:0.00073 287:0.00964 288:0.02023 
1 1:0.0234 2:0.01921 3:0.00445 4:0.00568 5:0.01153 6:0.00231 7:0.00569 8:0.03627 9:0.03895 10:0.05842 11:0.06576 12:0.01831 13:0.01682 14:0.0031 15:0.00532 16:0.01904 17:0.09139 18:0.04518 19:0.00454 20:0.00026 22:0.00113 23:0.01113 24:0.04159 25:0.05139 26:0.02328 27:0.00841 29:0.00614 30:0.01157 31:0.01043 32:0.0548 33:0.10125 34:0.14678 35:0.05174 36:0.00472 37:0.05756 38:0.00336 39:0.00854 40:0.0033 41:0.00376 42:0.00463 43:0.02269 44:0.1591 45:0.11043 46:0.04885 47:0.01713 48:0.00234 49:0.0019 52:0.01459 53:0.05443 54:0.17073 55:0.003 56:0.0158 57:0.03626 58:0.08682 59:0.01835 60:0.00898 61:0.00713 62:0.03653 63:0.03189 64:0.00167 65:0.00755 66:0.00572 67:0.02533 68:0.01183 69:0.00732 70:0.00271 71:0.00508 72:0.00469 73:0.0469 74:0.01776 75:0.00391 77:0.00336 78:0.01841 79:0.01462 80:0.09388 81:0.18519 82:0.05163 83:0.07053 84:0.05607 85:0.03528 86:0.01223 87:0.00972 88:0.0257 89:0.06174 90:0.11438 91:0.00253 92:0.00035 93:0.00107 94:0.00147 95:0.0053 96:0.00299 97:0.00537 98:0.00561 99:0.00498 100:0.00272 101:0.00254 102:0.02803 103:0.06591 104:0.02899 105:0.01541 106:0.00091 107:0.00419 108:0.00031 109:0.13698 110:0.12779 111:0.1269 112:0.00475 114:0.00044 115:0.00407 116:0.00688 118:0.00281 119:0.02312 120:0.14276 121:0.01759 122:0.00266 124:0.00031 125:0.00159 126:0.00077 127:0.00422 128:0.00137 129:0.0096 130:0.02532 131:0.0138 132:0.00953 133:0.00526 134:0.00042 136:0.00015 137:0.00083 138:0.04754 139:0.20046 140:0.07606 141:0.00517 142:0.00087 145:0.01331 146:0.02216 147:0.02902 148:0.03104 149:0.02054 150:0.00679 151:0.00994 152:0.00155 153:0.00763 155:0.02065 156:0.07718 157:0.1523 158:0.09035 159:0.01059 160:0.00473 161:0.00255 162:0.01148 163:0.0002 164:0.00239 165:0.02031 166:0.07243 167:0.03905 168:0.01114 169:0.00576 170:0.00014 172:0.00047 173:0.02159 174:0.14972 175:0.15628 176:0.0087 181:0.01883 182:0.03115 183:0.0563 184:0.06702 185:0.02636 186:0.01127 187:0.01019 188:0.0286 189:0.02648 190:0.04592 191:0.0026 192:0.00051 193:0.00304 194:0.01433 195:0.00572 196:0.02496 197:0.06129 198:0.03308 199:0.02282 200:0.04053 201:0.16088 202:0.04045 203:0.00359 205:0.01246 206:0.01621 207:0.01353 208:0.05303 209:0.00656 210:0.00734 211:0.01168 212:0.00477 213:0.00421 214:0.00673 215:0.04792 216:0.07964 217:0.07509 218:0.00698 219:0.0045 220:0.00285 222:0.00076 223:0.00231 224:0.03101 225:0.08078 226:0.01925 227:0.01243 228:0.00068 229:0.0044 230:0.00137 232:0.01 233:0.06006 234:0.06181 235:0.04323 236:0.00775 237:0.00074 238:0.00152 240:0.00971 241:0.00716 242:0.06033 243:0.16855 244:0.01854 245:0.00593 246:0.00787 247:0.00248 248:0.00827 249:0.00442 250:0.0056 251:0.04561 252:0.22801 253:0.01577 254:0.01089 255:0.00665 256:0.00122 257:0.00857 258:0.01578 259:0.01766 260:0.0104 261:0.00728 262:0.00228 263:0.00222 264:0.00056 265:0.02079 266:0.07876 267:0.13686 268:0.12591 269:0.00556 270:0.00247 272:0.01072 273:0.0077 274:0.02108 275:0.02175 276:0.00616 277:0.03012 278:0.18144 279:0.07602 280:0.00259 281:0.00012 282:0.00171 283:0.00408 284:0.01627 285:0.03141 286:0.07102 287:0.04627 288:0.00191 
1 1:0.0998 2:0.00609 5:0.00308 6:0.001 7:0.02121 8:0.08515 9:0.13346 10:0.06167 11:0.00702 12:0.0062 13:0.0059 14:0.0062 15:0.00694 16:0.00767 17:0.05475 18:0.12223 19:0.04008 20:0.01992 21:0.00586 22:0.01208 23:0.01788 24:0.00718 25:0.01765 26:0.02706 27:0.04145 28:0.04766 29:0.03246 30:0.01346 31:0.01104 32:0.03045 33:0.00519 34:0.00496 35:0.01828 36:0.01901 37:0.04648 38:0.03551 39:0.02085 40:0.00347 41:0.01158 42:0.00415 43:0.01076 44:0.04115 45:0.08585 46:0.08921 47:0.05607 48:0.04715 49:0.02042 50:0.00507 51:0.01396 52:0.02787 53:0.0857 54:0.01752 55:0.01837 56:0.02543 57:0.02443 58:0.08139 59:0.03756 60:0.00215 61:0.00236 62:0.01005 63:0.00645 65:0.01018 66:0.03024 67:0.07271 68:0.02639 69:0.01087 70:0.00605 71:0.00912 72:0.00345 73:0.15547 74:0.083 75:0.02403 76:0.00208 77:0.0007 78:0.00858 79:0.01864 80:0.02381 81:0.00978 82:0.02833 83:0.06833 84:0.10194 85:0.00881 86:0.00405 87:0.0013 88:0.00855 89:0.0158 90:0.0185 91:0.0065 92:0.01633 93:0.02055 94:0.02276 95:0.01733 96:0.00757 97:0.00613 98:0.00506 99:0.00274 100:0.0011 101:0.01379 102:0.11849 103:0.14311 104:0.02905 105:0.00471 106:0.00154 107:0.00124 108:0.00029 109:0.0515 110:0.01475 111:0.05073 112:0.13075 113:0.14772 114:0.03029 115:0.02231 116:0.00748 118:0.00795 119:0.00741 120:0.02239 122:0.01053 123:0.0079 124:0.04295 125:0.01306 126:0.00265 127:0.01059 128:0.01113 129:0.04128 130:0.04653 131:0.07222 132:0.0193 133:0.08156 134:0.04373 135:0.00201 136:0.00265 140:0.0316 142:0.05037 143:0.01666 145:0.01367 146:0.04897 147:0.09505 148:0.00642 149:0.00269 150:0.00094 151:0.00401 152:0.01213 153:0.00668 154:0.00705 155:0.00207 156:0.00629 157:0.0099 158:0.00989 159:0.00266 160:0.01114 161:0.12844 162:0.0822 163:0.05356 164:0.0449 165:0.02325 166:0.00049 167:0.00137 168:0.00182 169:0.0219 170:0.04641 171:0.08632 172:0.05732 173:0.03185 174:0.00438 175:0.00823 176:0.01106 177:0.00515 178:0.02016 179:0.06679 180:0.06483 181:0.04867 182:0.00178 184:0.0059 185:0.01148 186:0.00414 187:0.01138 188:0.05194 189:0.1589 190:0.0225 191:0.02856 192:0.02341 193:0.02391 194:0.0164 195:0.00148 196:0.01693 197:0.0242 198:0.13027 199:0.05738 200:0.01105 201:0.00471 202:0.00296 203:0.00559 204:0.00211 205:0.01562 206:0.0335 207:0.06526 208:0.09056 209:0.02455 210:0.0065 211:0.00657 212:0.00067 213:0.00372 214:0.00691 215:0.02052 216:0.05998 217:0.00845 218:0.02687 219:0.01532 220:0.04239 221:0.02871 222:0.0097 223:0.02066 224:0.00783 225:0.00793 226:0.00651 227:0.00425 228:0.02777 229:0.05611 230:0.08515 231:0.07708 232:0.04158 233:0.00483 234:0.00057 235:0.05489 236:0.01475 238:0.0008 239:0.00453 240:0.00625 241:0.00855 242:0.05848 243:0.07499 244:0.02243 245:0.00332 246:0.0034 247:0.01549 248:0.03068 249:0.10672 250:0.05954 251:0.04946 252:0.01401 253:0.01321 254:0.01815 255:0.06473 256:0.07953 257:0.1135 258:0.04178 259:0.00511 260:0.00489 261:0.0044 262:0.00363 263:0.01016 264:0.04604 265:0.01271 266:0.00962 268:0.00765 269:0.00256 271:0.02693 272:0.02767 273:0.07009 274:0.0646 275:0.04057 276:0.01522 277:0.02705 278:0.06691 279:0.07525 280:0.01268 281:0.01738 282:0.03083 283:0.02476 284:0.05204 285:0.00693 286:0.00255 287:0.00086 
